{
  "__comment__": "Generated with lstm.py",
  "lstm_forwards": {
    "input": [
      [
        7,
        10
      ],
      [
        0.9133003950119019,
        0.5968218445777893,
        0.715070903301239,
        0.872394323348999,
        0.7122405767440796,
        0.4096226692199707,
        0.08435302972793579,
        0.26420027017593384,
        0.202320396900177,
        0.5101141929626465,
        0.14596933126449585,
        0.817496120929718,
        0.598487138748169,
        0.2834330201148987,
        0.21026599407196045,
        0.6637879014015198,
        0.3803101181983948,
        0.5955277681350708,
        0.5469772219657898,
        0.5621936917304993,
        0.4308059811592102,
        0.40201878547668457,
        0.3827582597732544,
        0.6928003430366516,
        0.1776512861251831,
        0.5117176175117493,
        0.29682809114456177,
        0.024836480617523193,
        0.6406981348991394,
        0.6540642380714417,
        0.9449251294136047,
        0.828522264957428,
        0.9893791675567627,
        0.10709190368652344,
        0.06477832794189453,
        0.6555129289627075,
        0.7450419068336487,
        0.720277726650238,
        0.1707456111907959,
        0.8912867903709412,
        0.06539136171340942,
        0.6332365274429321,
        0.30856215953826904,
        0.3200613856315613,
        0.8951054811477661,
        0.9324677586555481,
        0.6941428780555725,
        0.724088191986084,
        0.5195250511169434,
        0.19344890117645264,
        0.6303691267967224,
        0.9300188422203064,
        0.7095063328742981,
        0.051515042781829834,
        0.394737184047699,
        0.6594959497451782,
        0.4077892303466797,
        0.3444681167602539,
        0.061629652976989746,
        0.5511935949325562,
        0.6339388489723206,
        0.04555976390838623,
        0.595454752445221,
        0.6504595279693604,
        0.6865719556808472,
        0.8257109522819519,
        0.2045520544052124,
        0.6628851294517517,
        0.5462275743484497,
        0.35479259490966797
      ]
    ],
    "output": [
      [
        7,
        5
      ],
      [
        0.016230711713433266,
        0.1193385124206543,
        -0.006369756534695625,
        0.08384184539318085,
        -0.1782914251089096,
        -0.011271198280155659,
        0.12843912839889526,
        0.16284042596817017,
        0.18807564675807953,
        -0.1734507530927658,
        -0.0462392196059227,
        0.1598789393901825,
        0.15896333754062653,
        0.20535483956336975,
        -0.30161604285240173,
        -0.008040390908718109,
        0.025976287201046944,
        -0.022606033831834793,
        0.21338379383087158,
        -0.34523260593414307,
        0.10011541098356247,
        0.13097631931304932,
        0.053996745496988297,
        0.2374843955039978,
        -0.2645677924156189,
        0.15030570328235626,
        0.1492648422718048,
        0.1193188726902008,
        0.2106848806142807,
        -0.2859659194946289,
        0.1377282291650772,
        0.22757679224014282,
        0.03262370824813843,
        0.15007087588310242,
        -0.3476138412952423
      ]
    ],
    "params": {
      "weight_ih_l0": [
        [
          20,
          10
        ],
        [
          -0.4212937653064728,
          -0.08774459362030029,
          -0.21480189263820648,
          -0.11927959322929382,
          -0.39506784081459045,
          0.17946207523345947,
          -0.40088459849357605,
          -0.028497129678726196,
          0.15545690059661865,
          -0.15074500441551208,
          0.25375616550445557,
          0.05640542507171631,
          0.24583375453948975,
          0.2869345545768738,
          -0.19742105901241302,
          0.16252732276916504,
          -0.1934869885444641,
          0.1401839256286621,
          -0.2336638867855072,
          0.20686715841293335,
          0.09053629636764526,
          -0.1750139594078064,
          -0.21935632824897766,
          0.11570477485656738,
          0.41726016998291016,
          0.21461713314056396,
          -0.04318481683731079,
          -0.021706998348236084,
          0.25419116020202637,
          -0.31081682443618774,
          0.14867562055587769,
          -0.14818596839904785,
          0.25874924659729004,
          -0.15953028202056885,
          0.0221136212348938,
          0.15101569890975952,
          0.30733829736709595,
          -0.06573295593261719,
          0.4079892635345459,
          -0.37836331129074097,
          -0.07977315783500671,
          -0.44595056772232056,
          0.03704714775085449,
          0.12691038846969604,
          -0.18103507161140442,
          0.185738205909729,
          -0.07249736785888672,
          -0.3886231482028961,
          0.3433406352996826,
          0.2757354974746704,
          0.22611463069915771,
          0.3567253351211548,
          0.16444939374923706,
          0.23777902126312256,
          0.3711127042770386,
          -0.09010577201843262,
          -0.34878435730934143,
          -0.21993620693683624,
          -0.05969884991645813,
          -0.049142807722091675,
          -0.003031015396118164,
          0.25628548860549927,
          0.14346212148666382,
          -0.33066606521606445,
          -0.1343453824520111,
          -0.10520684719085693,
          0.2721802592277527,
          -0.16223976016044617,
          -0.18710726499557495,
          -0.07190319895744324,
          -0.11375817656517029,
          -0.11011120676994324,
          -0.4375721514225006,
          0.39846163988113403,
          0.2380174994468689,
          -0.21161548793315887,
          -0.2790311872959137,
          0.015558362007141113,
          0.2548105716705322,
          -0.32093894481658936,
          -0.16890370845794678,
          0.18705862760543823,
          -0.28845930099487305,
          -0.049797266721725464,
          -0.33724284172058105,
          0.4147987961769104,
          0.24106615781784058,
          -0.41337069869041443,
          -0.24691277742385864,
          0.15852922201156616,
          0.024509549140930176,
          0.1185157299041748,
          -0.3658561110496521,
          -0.2394561916589737,
          0.20291757583618164,
          -0.3410012722015381,
          -0.0938062071800232,
          0.19666427373886108,
          0.232111394405365,
          0.027806520462036133,
          0.12964320182800293,
          0.19893860816955566,
          -0.05224555730819702,
          -0.12219268083572388,
          0.3415178656578064,
          0.43595314025878906,
          0.20714998245239258,
          -0.1954927146434784,
          -0.3890060484409332,
          -0.4414069652557373,
          0.0030937492847442627,
          -0.17158710956573486,
          -0.11253857612609863,
          -0.06288889050483704,
          0.42293548583984375,
          0.423903226852417,
          -0.0418127179145813,
          -0.13428959250450134,
          0.2171834111213684,
          -0.03568625450134277,
          -0.42552822828292847,
          0.14577710628509521,
          0.42814189195632935,
          -0.3544940948486328,
          -0.09658637642860413,
          0.0969851016998291,
          -0.3641701638698578,
          -0.382886677980423,
          0.333859920501709,
          -0.15835630893707275,
          0.260871946811676,
          0.03997984528541565,
          0.10911440849304199,
          -0.2980511784553528,
          -0.09551289677619934,
          0.2950049042701721,
          0.20512038469314575,
          -0.1293007731437683,
          0.0550156831741333,
          0.3423948884010315,
          -0.3918473720550537,
          0.2872668504714966,
          -0.13440561294555664,
          -0.09097924828529358,
          0.21281099319458008,
          -0.3715265393257141,
          -0.06756040453910828,
          0.42736726999282837,
          0.16095560789108276,
          -0.16536572575569153,
          -0.09741246700286865,
          0.35268378257751465,
          0.16896075010299683,
          0.3031541705131531,
          -0.28798365592956543,
          0.12893307209014893,
          0.07994306087493896,
          0.07795608043670654,
          0.4152609705924988,
          0.24756461381912231,
          0.3082655668258667,
          0.1963670253753662,
          0.1879568099975586,
          -0.07778927683830261,
          -0.3947036564350128,
          -0.3777746856212616,
          -0.2785360813140869,
          -0.28954532742500305,
          0.21052831411361694,
          0.13844168186187744,
          -0.12751850485801697,
          -0.34066909551620483,
          0.4402660131454468,
          0.3360597491264343,
          0.2126866579055786,
          0.4426676034927368,
          -0.23810003697872162,
          -0.2546791732311249,
          -0.2617729902267456,
          -0.021651506423950195,
          -0.3947727382183075,
          0.35403281450271606,
          0.011504411697387695,
          0.2227102518081665,
          -0.245596781373024,
          -0.04607278108596802,
          0.05882072448730469,
          -0.12240475416183472,
          0.4221249222755432,
          -0.20432043075561523,
          0.13885819911956787,
          -0.30343830585479736,
          -0.05293366312980652,
          -0.118645578622818,
          0.19295376539230347,
          0.31239765882492065,
          0.10876572132110596,
          -0.04060477018356323,
          -0.1145174503326416,
          0.3506285548210144
        ]
      ],
      "weight_hh_l0": [
        [
          20,
          5
        ],
        [
          -0.10567143559455872,
          0.3228510022163391,
          -0.19897979497909546,
          0.36857885122299194,
          0.4454231858253479,
          0.3065590262413025,
          0.2564971446990967,
          0.16645348072052002,
          -0.21989376842975616,
          0.005337387323379517,
          0.15398985147476196,
          -0.11685651540756226,
          0.08017086982727051,
          0.2619224190711975,
          -0.4143580198287964,
          -0.4070548117160797,
          -0.2675963044166565,
          0.0545535683631897,
          -0.08289459347724915,
          0.09637093544006348,
          -0.10634803771972656,
          -0.29276299476623535,
          0.059376537799835205,
          0.30289196968078613,
          -0.2685231864452362,
          0.3920166492462158,
          0.11006522178649902,
          0.440967321395874,
          -0.4099106788635254,
          -0.4280777871608734,
          0.15172350406646729,
          -0.41720134019851685,
          -0.3664899170398712,
          0.22740072011947632,
          0.21709084510803223,
          -0.40751031041145325,
          0.32180529832839966,
          -0.08695903420448303,
          0.3320200443267822,
          -0.2624456584453583,
          -0.4252418279647827,
          -0.2964646816253662,
          -0.06933057308197021,
          -0.4466431438922882,
          -0.030470579862594604,
          -0.22319693863391876,
          -0.10408985614776611,
          -6.35981559753418e-05,
          0.02509978413581848,
          -0.4374563694000244,
          0.23003607988357544,
          -0.27409595251083374,
          0.27254366874694824,
          0.40979212522506714,
          -0.14914178848266602,
          0.050192564725875854,
          0.24658489227294922,
          -0.03543120622634888,
          -0.3741953670978546,
          0.20089083909988403,
          0.2127588391304016,
          -0.2450103461742401,
          -0.3011155128479004,
          -0.07804563641548157,
          0.08768272399902344,
          -0.22616736590862274,
          -0.010749876499176025,
          -0.19325467944145203,
          -0.1742267608642578,
          -0.0612034797668457,
          -0.1704522669315338,
          0.3435247540473938,
          0.11751037836074829,
          0.4002264738082886,
          0.4037938714027405,
          0.0730934739112854,
          -0.1860523223876953,
          0.2719494104385376,
          -0.015563160181045532,
          0.3310644030570984,
          -0.09549281001091003,
          0.3954792618751526,
          0.059073686599731445,
          -0.09936213493347168,
          -0.29175734519958496,
          0.3309733271598816,
          0.05817073583602905,
          0.15469658374786377,
          0.18076753616333008,
          -0.023094862699508667,
          -0.2248314768075943,
          -0.13347819447517395,
          -0.019909054040908813,
          0.27769899368286133,
          -0.0326865017414093,
          -0.11337539553642273,
          -0.06077831983566284,
          0.07342201471328735,
          0.3569430708885193,
          0.3374863862991333
        ]
      ],
      "bias_ih_l0": [
        [
          20
        ],
        [
          -0.026156634092330933,
          0.059280216693878174,
          0.4055768847465515,
          0.19647735357284546,
          -0.047188758850097656,
          0.26511305570602417,
          0.20369952917099,
          -0.12010625004768372,
          0.18091243505477905,
          0.035446733236312866,
          -0.16603562235832214,
          -0.03507542610168457,
          0.42092013359069824,
          0.134335458278656,
          -0.36922234296798706,
          0.2849981188774109,
          0.09609055519104004,
          0.21999281644821167,
          0.001879185438156128,
          0.17786478996276855
        ]
      ],
      "bias_hh_l0": [
        [
          20
        ],
        [
          0.1336778998374939,
          0.3926604986190796,
          0.23601293563842773,
          -0.19571101665496826,
          0.234361469745636,
          -0.02652469277381897,
          0.2956995368003845,
          -0.15692082047462463,
          -0.1312602460384369,
          0.413557767868042,
          0.07879853248596191,
          0.06270170211791992,
          0.04586133360862732,
          0.029152125120162964,
          0.018818020820617676,
          -0.3886166512966156,
          0.4316861629486084,
          0.4269503355026245,
          -0.3078722357749939,
          0.11058491468429565
        ]
      ]
    }
  },
  "lstm_bidirectional": {
    "input": [
      [
        7,
        10
      ],
      [
        0.9133003950119019,
        0.5968218445777893,
        0.715070903301239,
        0.872394323348999,
        0.7122405767440796,
        0.4096226692199707,
        0.08435302972793579,
        0.26420027017593384,
        0.202320396900177,
        0.5101141929626465,
        0.14596933126449585,
        0.817496120929718,
        0.598487138748169,
        0.2834330201148987,
        0.21026599407196045,
        0.6637879014015198,
        0.3803101181983948,
        0.5955277681350708,
        0.5469772219657898,
        0.5621936917304993,
        0.4308059811592102,
        0.40201878547668457,
        0.3827582597732544,
        0.6928003430366516,
        0.1776512861251831,
        0.5117176175117493,
        0.29682809114456177,
        0.024836480617523193,
        0.6406981348991394,
        0.6540642380714417,
        0.9449251294136047,
        0.828522264957428,
        0.9893791675567627,
        0.10709190368652344,
        0.06477832794189453,
        0.6555129289627075,
        0.7450419068336487,
        0.720277726650238,
        0.1707456111907959,
        0.8912867903709412,
        0.06539136171340942,
        0.6332365274429321,
        0.30856215953826904,
        0.3200613856315613,
        0.8951054811477661,
        0.9324677586555481,
        0.6941428780555725,
        0.724088191986084,
        0.5195250511169434,
        0.19344890117645264,
        0.6303691267967224,
        0.9300188422203064,
        0.7095063328742981,
        0.051515042781829834,
        0.394737184047699,
        0.6594959497451782,
        0.4077892303466797,
        0.3444681167602539,
        0.061629652976989746,
        0.5511935949325562,
        0.6339388489723206,
        0.04555976390838623,
        0.595454752445221,
        0.6504595279693604,
        0.6865719556808472,
        0.8257109522819519,
        0.2045520544052124,
        0.6628851294517517,
        0.5462275743484497,
        0.35479259490966797
      ]
    ],
    "output": [
      [
        7,
        10
      ],
      [
        -0.11026996374130249,
        -0.1699342578649521,
        -0.10035926848649979,
        0.010276836343109608,
        -0.025503287091851234,
        0.33398786187171936,
        0.35487911105155945,
        0.08002179116010666,
        0.018246464431285858,
        -0.2170657515525818,
        -0.1381148397922516,
        -0.23085011541843414,
        -0.046603526920080185,
        -0.00903414934873581,
        -0.0458858497440815,
        0.2997913956642151,
        0.282223641872406,
        0.09451282024383545,
        -0.14834076166152954,
        -0.24642646312713623,
        -0.15506145358085632,
        -0.2343771755695343,
        -0.10023891925811768,
        0.007538436446338892,
        -0.12643082439899445,
        0.3110024929046631,
        0.3255288004875183,
        0.08620350807905197,
        -0.0772179663181305,
        -0.20945629477500916,
        -0.17457813024520874,
        -0.3770633935928345,
        -0.033946793526411057,
        -0.015916699543595314,
        -0.017554158344864845,
        0.28902891278266907,
        0.29482799768447876,
        0.08648810535669327,
        0.08359754830598831,
        -0.2061155140399933,
        -0.1630464494228363,
        -0.2836655080318451,
        -0.04481487721204758,
        0.019676802679896355,
        -0.003355166641995311,
        0.3425579071044922,
        0.19554850459098816,
        0.08608324080705643,
        -0.18717923760414124,
        -0.22990696132183075,
        -0.19729971885681152,
        -0.2859182059764862,
        -0.04290539026260376,
        -0.00924667064100504,
        0.01868053525686264,
        0.24993787705898285,
        0.27233651280403137,
        0.0855918601155281,
        -0.0168137364089489,
        -0.15563847124576569,
        -0.184141606092453,
        -0.24629542231559753,
        -0.08546456694602966,
        0.045990630984306335,
        0.07304937392473221,
        0.2222757339477539,
        0.1601625680923462,
        0.03430165722966194,
        -0.0022449945099651814,
        -0.05586132034659386
      ]
    ],
    "params": {
      "weight_ih_l0": [
        [
          20,
          10
        ],
        [
          -0.10472378134727478,
          0.18576228618621826,
          0.24809658527374268,
          -0.08251723647117615,
          -0.11292541027069092,
          0.07563626766204834,
          -0.24316014349460602,
          0.3295583724975586,
          -0.1247757077217102,
          -0.15053382515907288,
          0.40899360179901123,
          -0.34620988368988037,
          -0.12031883001327515,
          0.4046825170516968,
          -0.20777098834514618,
          -0.09352457523345947,
          0.4288407564163208,
          -0.1480061411857605,
          0.20646387338638306,
          0.19189929962158203,
          0.08628445863723755,
          -0.3791098892688751,
          -0.2896270751953125,
          -0.3570580780506134,
          -0.4407252371311188,
          -0.1247197687625885,
          0.05247977375984192,
          -0.3916231393814087,
          -0.4050084948539734,
          0.022472023963928223,
          -0.1662948727607727,
          0.08252596855163574,
          0.09275341033935547,
          0.44496142864227295,
          -0.016185462474822998,
          -0.36194849014282227,
          -0.29541152715682983,
          -0.41202056407928467,
          -0.08199205994606018,
          0.051235735416412354,
          0.1475963592529297,
          0.0853433609008789,
          0.10268229246139526,
          0.06184893846511841,
          -0.03966483473777771,
          -0.2006286233663559,
          0.1054641604423523,
          0.05887889862060547,
          -0.12569725513458252,
          0.32590335607528687,
          -0.4352424740791321,
          0.13143330812454224,
          -0.2524581551551819,
          0.2366979718208313,
          0.34975361824035645,
          0.3168334364891052,
          0.17148208618164062,
          -0.21355071663856506,
          -0.09859314560890198,
          -0.12546086311340332,
          0.054107666015625,
          -0.21708135306835175,
          0.21743780374526978,
          0.26046061515808105,
          -0.181059330701828,
          -0.12883055210113525,
          -0.31419581174850464,
          -0.2483682483434677,
          -0.22012414038181305,
          0.3114815950393677,
          -0.38218969106674194,
          0.13389092683792114,
          0.4010165333747864,
          -0.29714587330818176,
          -0.39429500699043274,
          0.24234509468078613,
          0.2738741636276245,
          0.18713873624801636,
          0.3524043560028076,
          0.28271549940109253,
          -0.06947559118270874,
          0.33099305629730225,
          -0.2248939573764801,
          0.1913433074951172,
          -0.2697347402572632,
          0.10034161806106567,
          0.241521418094635,
          0.1672954559326172,
          0.24353474378585815,
          -0.06754499673843384,
          0.15349441766738892,
          0.057125627994537354,
          0.37224888801574707,
          0.26017826795578003,
          -0.32441309094429016,
          0.175456702709198,
          0.23797297477722168,
          0.12323296070098877,
          -0.22605285048484802,
          0.43530118465423584,
          -0.31319689750671387,
          -0.3637426495552063,
          0.14498603343963623,
          0.18890154361724854,
          0.03392568230628967,
          0.016896724700927734,
          0.18739533424377441,
          0.3165898323059082,
          -0.216245636343956,
          0.14025509357452393,
          -0.16477134823799133,
          -0.23129704594612122,
          -0.2322312891483307,
          -0.33284854888916016,
          0.37730473279953003,
          -0.15146219730377197,
          -0.12569043040275574,
          -0.010818034410476685,
          -0.29132142663002014,
          0.2898150682449341,
          -0.13931521773338318,
          0.23757952451705933,
          0.1299128532409668,
          -0.4439351558685303,
          -0.41118890047073364,
          -0.4358842670917511,
          0.4013267755508423,
          0.40791285037994385,
          0.1529480218887329,
          -0.18586376309394836,
          0.1470850110054016,
          -0.3378966152667999,
          0.07258212566375732,
          -0.06111264228820801,
          0.3064066171646118,
          0.028085529804229736,
          -0.0021357834339141846,
          -0.03961056470870972,
          0.42928361892700195,
          -0.31275472044944763,
          0.2028193473815918,
          -0.4023929536342621,
          0.08213317394256592,
          -0.37484392523765564,
          0.21726876497268677,
          0.400177001953125,
          -0.21453745663166046,
          0.40111440420150757,
          -0.40044939517974854,
          0.21341729164123535,
          0.0761060118675232,
          -0.10238870978355408,
          -0.06176254153251648,
          0.17872321605682373,
          -0.08148682117462158,
          -0.43257176876068115,
          -0.16154766082763672,
          0.3793577551841736,
          -0.38510408997535706,
          -0.1507560908794403,
          0.18456661701202393,
          0.3269808292388916,
          -0.33627229928970337,
          -0.30946654081344604,
          0.2697925567626953,
          0.30419301986694336,
          0.29089832305908203,
          0.2567189335823059,
          -0.38131195306777954,
          0.14743518829345703,
          -0.01619735360145569,
          0.068667471408844,
          -0.17096459865570068,
          0.4326969385147095,
          -0.024234682321548462,
          -0.30607685446739197,
          0.23170804977416992,
          -0.0093841552734375,
          -0.2787914276123047,
          -0.19764389097690582,
          -0.2820267081260681,
          0.08792257308959961,
          0.09596139192581177,
          -0.12380227446556091,
          0.03668630123138428,
          -0.24277363717556,
          -0.4436272978782654,
          -0.010779857635498047,
          0.423933207988739,
          -0.3331338167190552,
          0.08871030807495117,
          -0.22474899888038635,
          -0.0703381597995758,
          0.10443389415740967,
          -0.22042401134967804,
          -0.3834809362888336,
          -0.00694158673286438,
          -0.033315688371658325,
          0.3236961364746094,
          0.17846357822418213
        ]
      ],
      "weight_hh_l0": [
        [
          20,
          5
        ],
        [
          0.2570543885231018,
          -0.2809663712978363,
          -0.41904473304748535,
          -0.2702654004096985,
          -0.3593619465827942,
          -0.015588432550430298,
          -0.1328141987323761,
          -0.041062891483306885,
          -0.12624630331993103,
          -0.07386699318885803,
          0.09936463832855225,
          0.43826746940612793,
          -0.09235534071922302,
          0.36709731817245483,
          0.4016965627670288,
          0.21399885416030884,
          -0.11810290813446045,
          0.11885792016983032,
          -0.2931837737560272,
          -0.038108229637145996,
          -0.20914149284362793,
          -0.3424553871154785,
          -0.37872278690338135,
          -0.16139861941337585,
          0.1115761399269104,
          -0.009430944919586182,
          0.015409141778945923,
          0.18771570920944214,
          0.1278148889541626,
          0.3006319999694824,
          -0.10714882612228394,
          0.10258173942565918,
          -0.004448205232620239,
          -0.1535084843635559,
          -0.30020737648010254,
          -0.12395811080932617,
          -0.42324572801589966,
          0.053019940853118896,
          -0.3554338216781616,
          -0.15552139282226562,
          -0.17474013566970825,
          0.383300244808197,
          -0.36453402042388916,
          -0.1067952811717987,
          0.16013073921203613,
          0.12643200159072876,
          0.3669794797897339,
          0.10853075981140137,
          0.2628929615020752,
          -0.2684556841850281,
          0.2776137590408325,
          0.009705126285552979,
          -0.0496746301651001,
          -0.20069509744644165,
          0.1657232642173767,
          0.2315136194229126,
          -0.32739999890327454,
          -0.34582313895225525,
          0.17841744422912598,
          -0.39575859904289246,
          -0.42067763209342957,
          0.3235296607017517,
          0.1423351764678955,
          0.034407198429107666,
          -0.002583026885986328,
          0.18579572439193726,
          -0.31943243741989136,
          0.37184661626815796,
          -0.06230345368385315,
          0.043884098529815674,
          -0.42335546016693115,
          0.027233809232711792,
          -0.2732478380203247,
          0.2516421675682068,
          -0.42481768131256104,
          0.4030888080596924,
          -0.10484489798545837,
          -0.15255451202392578,
          -0.002874523401260376,
          -0.3655567467212677,
          0.14423304796218872,
          0.3647770881652832,
          -0.18786507844924927,
          -0.14522448182106018,
          -0.3726539611816406,
          0.10894936323165894,
          0.32940590381622314,
          0.3640708923339844,
          0.1435224413871765,
          0.200600266456604,
          -0.32824069261550903,
          -0.17983251810073853,
          0.4364001750946045,
          0.0065985918045043945,
          0.18194401264190674,
          -0.33134639263153076,
          -0.36906319856643677,
          0.35305583477020264,
          -0.19852957129478455,
          -0.24161244928836823
        ]
      ],
      "bias_ih_l0": [
        [
          20
        ],
        [
          -0.01939767599105835,
          -0.03247252106666565,
          0.19538158178329468,
          0.27906733751296997,
          0.39682793617248535,
          -0.13240128755569458,
          -0.11595943570137024,
          -0.3506079912185669,
          -0.22712229192256927,
          -0.0835929811000824,
          -0.22895191609859467,
          0.01098644733428955,
          -0.09594276547431946,
          0.25714367628097534,
          -0.3906130790710449,
          -0.009030520915985107,
          -0.16911417245864868,
          0.03013041615486145,
          -0.2415575385093689,
          -0.4404267966747284
        ]
      ],
      "bias_hh_l0": [
        [
          20
        ],
        [
          -0.010437577962875366,
          0.04001337289810181,
          0.3882693648338318,
          -0.30457937717437744,
          -0.06664818525314331,
          0.36214709281921387,
          0.43073010444641113,
          0.06823670864105225,
          -0.21811214089393616,
          0.26377755403518677,
          -0.3238561451435089,
          -0.37480947375297546,
          0.03837639093399048,
          -0.26113760471343994,
          0.14277660846710205,
          -0.1936829686164856,
          -0.3232229948043823,
          -0.16340243816375732,
          -0.2914315462112427,
          -0.3148719072341919
        ]
      ],
      "weight_ih_l0_reverse": [
        [
          20,
          10
        ],
        [
          0.23532778024673462,
          -0.04486653208732605,
          -0.1917477548122406,
          -0.4384560286998749,
          0.3424246907234192,
          -0.26458725333213806,
          0.3642039895057678,
          -0.37972724437713623,
          -0.2061091512441635,
          0.42966896295547485,
          0.1875072717666626,
          -0.28683772683143616,
          -0.29328030347824097,
          -0.22544579207897186,
          0.17082661390304565,
          0.2332177758216858,
          -0.1660136580467224,
          -0.37525302171707153,
          -0.29879939556121826,
          0.2789362072944641,
          0.07807004451751709,
          0.18286049365997314,
          0.23020786046981812,
          -0.2880701422691345,
          -0.33700117468833923,
          -0.31879866123199463,
          0.4397103190422058,
          0.013266414403915405,
          0.025487452745437622,
          -0.4364275634288788,
          0.07362920045852661,
          -0.41595372557640076,
          -0.29297178983688354,
          0.02862614393234253,
          -0.3988375663757324,
          0.2000020146369934,
          0.31739193201065063,
          -0.1875542402267456,
          0.3249964714050293,
          0.3482521176338196,
          -0.4128365218639374,
          0.022763043642044067,
          -0.1185840368270874,
          -0.06935247778892517,
          0.2514845132827759,
          -0.22942286729812622,
          -0.2968115508556366,
          0.05124738812446594,
          0.09347033500671387,
          -0.2408701777458191,
          -0.19554153084754944,
          -0.40239545702934265,
          0.25330716371536255,
          -0.22814737260341644,
          0.21580559015274048,
          -0.37022697925567627,
          -0.2989061176776886,
          -0.014698505401611328,
          0.4445379972457886,
          -0.05809515714645386,
          -0.042919278144836426,
          -0.09833687543869019,
          0.06445330381393433,
          -0.13802340626716614,
          0.34582340717315674,
          0.04562133550643921,
          0.23014599084854126,
          0.014784544706344604,
          0.33567965030670166,
          -0.2825797498226166,
          -0.22840818762779236,
          -0.17681756615638733,
          -0.18562215566635132,
          0.03190666437149048,
          0.20697462558746338,
          -0.3293929100036621,
          -0.31468528509140015,
          0.27088022232055664,
          0.20529437065124512,
          0.09411245584487915,
          0.18929779529571533,
          0.052291154861450195,
          -0.1530764400959015,
          -0.07171463966369629,
          -0.11731293797492981,
          -0.18879234790802002,
          -0.272161066532135,
          -0.06730517745018005,
          -0.2884201407432556,
          -0.25856801867485046,
          -0.2799476385116577,
          0.415097177028656,
          0.4413159489631653,
          0.24540841579437256,
          -0.09101203083992004,
          0.11750423908233643,
          0.18498587608337402,
          0.06982666254043579,
          0.2312910556793213,
          0.16859948635101318,
          0.14448189735412598,
          0.425298273563385,
          -0.37128394842147827,
          0.04285314679145813,
          0.3580138683319092,
          0.36584562063217163,
          -0.1264609396457672,
          0.2982925772666931,
          -0.26643654704093933,
          -0.02813434600830078,
          0.4048464894294739,
          -0.07607027888298035,
          0.23263204097747803,
          0.4463333487510681,
          -0.1907065212726593,
          0.19067126512527466,
          -0.1757735013961792,
          -0.12311935424804688,
          0.33156222105026245,
          0.1416502594947815,
          -0.3887925148010254,
          0.4191664457321167,
          0.31622636318206787,
          0.24825936555862427,
          0.05073273181915283,
          0.20580244064331055,
          -0.13980495929718018,
          -0.15607976913452148,
          0.2354755401611328,
          0.06985551118850708,
          0.42852169275283813,
          0.008026450872421265,
          -0.025503873825073242,
          0.2597388029098511,
          -0.2176256626844406,
          -0.3972901999950409,
          0.01499214768409729,
          0.44000154733657837,
          -0.341705858707428,
          0.07020866870880127,
          -0.2926639914512634,
          -0.3842684030532837,
          -0.003297358751296997,
          -0.15912452340126038,
          -0.10666140913963318,
          0.147394061088562,
          -0.10486036539077759,
          0.05011814832687378,
          -0.01066964864730835,
          0.3407735824584961,
          0.15436816215515137,
          -0.1620132327079773,
          -0.3363908529281616,
          0.29678022861480713,
          -0.04758283495903015,
          0.17986243963241577,
          -0.1934688687324524,
          0.31691598892211914,
          0.3031129240989685,
          0.02129259705543518,
          0.11600768566131592,
          0.08985710144042969,
          0.1694774031639099,
          -0.055884361267089844,
          -0.3853209614753723,
          -0.3131749629974365,
          0.06928306818008423,
          -0.44542816281318665,
          -0.42656105756759644,
          -0.24641767144203186,
          0.23136252164840698,
          -0.03344738483428955,
          -0.3177259564399719,
          -0.2985425889492035,
          -0.17381161451339722,
          -0.32955068349838257,
          0.4172988533973694,
          -0.28659695386886597,
          -0.23704738914966583,
          -0.3143709897994995,
          -0.16181567311286926,
          0.3555678129196167,
          0.16373580694198608,
          0.0333116352558136,
          -0.44125404953956604,
          0.180763840675354,
          0.41848278045654297,
          -0.007150858640670776,
          0.3040797710418701,
          -0.1442883312702179,
          -0.4193457365036011,
          -0.011171847581863403,
          0.17827671766281128,
          -0.19646331667900085,
          0.02591589093208313,
          0.07478153705596924,
          0.42923563718795776,
          -0.2332996129989624,
          -0.3885422945022583,
          -0.20827078819274902
        ]
      ],
      "weight_hh_l0_reverse": [
        [
          20,
          5
        ],
        [
          0.32228749990463257,
          -0.20758621394634247,
          -0.029342979192733765,
          -0.321572482585907,
          -0.23023732006549835,
          -0.38379597663879395,
          0.13378560543060303,
          0.3018290400505066,
          -0.05954664945602417,
          -0.03241699934005737,
          0.11465698480606079,
          -0.0658363401889801,
          0.037566304206848145,
          0.1837201714515686,
          0.34419721364974976,
          0.22829073667526245,
          0.1094633936882019,
          0.3831503987312317,
          -0.39865347743034363,
          -0.294455885887146,
          0.3635566234588623,
          0.4157792329788208,
          -0.20847024023532867,
          0.3511331081390381,
          -0.051305949687957764,
          -0.12495952844619751,
          -0.017265409231185913,
          -0.11626172065734863,
          0.12314832210540771,
          0.03393644094467163,
          -0.0022357404232025146,
          -0.18802610039710999,
          0.2716442942619324,
          -0.27713024616241455,
          -0.006140381097793579,
          0.2945328950881958,
          -0.23840360343456268,
          -0.2985880970954895,
          0.11889111995697021,
          -0.3698253333568573,
          -0.18648898601531982,
          0.3902830481529236,
          0.2578599452972412,
          0.4044301509857178,
          -0.42756763100624084,
          -0.42058685421943665,
          0.11133098602294922,
          0.15842992067337036,
          -0.25919049978256226,
          0.1609976887702942,
          0.07726871967315674,
          -0.19016417860984802,
          0.41753220558166504,
          0.3434661030769348,
          0.37046605348587036,
          -0.145842045545578,
          0.0026547908782958984,
          -0.21295276284217834,
          0.3660038709640503,
          0.4062587022781372,
          -0.22178123891353607,
          0.1299757957458496,
          0.3798915147781372,
          0.05688953399658203,
          -0.1505240797996521,
          -0.06838640570640564,
          -0.29336801171302795,
          0.437955379486084,
          -0.22417180240154266,
          0.0977981686592102,
          -0.39149150252342224,
          0.04308709502220154,
          0.3156849145889282,
          -0.3676692843437195,
          0.15871024131774902,
          0.009226858615875244,
          0.24210387468338013,
          -0.21035262942314148,
          -0.2676527500152588,
          -0.1999989002943039,
          -0.0650210976600647,
          0.37672048807144165,
          -0.02747189998626709,
          -0.32817313075065613,
          -0.254170686006546,
          -0.10569974780082703,
          -0.1310655176639557,
          -0.0388542115688324,
          -0.1800452172756195,
          -0.21325258910655975,
          0.12487822771072388,
          0.1338215470314026,
          -0.18779560923576355,
          0.16887420415878296,
          -0.17706754803657532,
          0.020907044410705566,
          -0.09219807386398315,
          0.011320263147354126,
          0.36487025022506714,
          -0.18088895082473755
        ]
      ],
      "bias_ih_l0_reverse": [
        [
          20
        ],
        [
          0.4038936495780945,
          -0.020421653985977173,
          -0.3039565682411194,
          0.15677666664123535,
          0.05032983422279358,
          0.43874549865722656,
          0.342509925365448,
          -0.4154829680919647,
          0.384457528591156,
          0.409994900226593,
          0.2330809235572815,
          -0.02281668782234192,
          0.4334903955459595,
          0.028847604990005493,
          0.02613893151283264,
          -0.020932793617248535,
          0.2408730387687683,
          -0.03876620531082153,
          0.04363203048706055,
          -0.17448478937149048
        ]
      ],
      "bias_hh_l0_reverse": [
        [
          20
        ],
        [
          0.05684459209442139,
          0.22959858179092407,
          0.23804938793182373,
          0.41938483715057373,
          0.04019331932067871,
          -0.4145001769065857,
          -0.2725449800491333,
          -0.2149517983198166,
          -0.03502374887466431,
          -0.37277284264564514,
          0.3579283356666565,
          0.37461036443710327,
          -0.3232268691062927,
          -0.11621001362800598,
          -0.2730332612991333,
          -0.24435609579086304,
          0.4103155732154846,
          -0.21328772604465485,
          0.20178824663162231,
          0.239124596118927
        ]
      ]
    }
  },
  "lstm_initial": {
    "input": [
      [
        7,
        10
      ],
      [
        0.9133003950119019,
        0.5968218445777893,
        0.715070903301239,
        0.872394323348999,
        0.7122405767440796,
        0.4096226692199707,
        0.08435302972793579,
        0.26420027017593384,
        0.202320396900177,
        0.5101141929626465,
        0.14596933126449585,
        0.817496120929718,
        0.598487138748169,
        0.2834330201148987,
        0.21026599407196045,
        0.6637879014015198,
        0.3803101181983948,
        0.5955277681350708,
        0.5469772219657898,
        0.5621936917304993,
        0.4308059811592102,
        0.40201878547668457,
        0.3827582597732544,
        0.6928003430366516,
        0.1776512861251831,
        0.5117176175117493,
        0.29682809114456177,
        0.024836480617523193,
        0.6406981348991394,
        0.6540642380714417,
        0.9449251294136047,
        0.828522264957428,
        0.9893791675567627,
        0.10709190368652344,
        0.06477832794189453,
        0.6555129289627075,
        0.7450419068336487,
        0.720277726650238,
        0.1707456111907959,
        0.8912867903709412,
        0.06539136171340942,
        0.6332365274429321,
        0.30856215953826904,
        0.3200613856315613,
        0.8951054811477661,
        0.9324677586555481,
        0.6941428780555725,
        0.724088191986084,
        0.5195250511169434,
        0.19344890117645264,
        0.6303691267967224,
        0.9300188422203064,
        0.7095063328742981,
        0.051515042781829834,
        0.394737184047699,
        0.6594959497451782,
        0.4077892303466797,
        0.3444681167602539,
        0.061629652976989746,
        0.5511935949325562,
        0.6339388489723206,
        0.04555976390838623,
        0.595454752445221,
        0.6504595279693604,
        0.6865719556808472,
        0.8257109522819519,
        0.2045520544052124,
        0.6628851294517517,
        0.5462275743484497,
        0.35479259490966797
      ]
    ],
    "output": [
      [
        7,
        5
      ],
      [
        0.16531212627887726,
        0.2940082550048828,
        -0.029355088248848915,
        0.08559142053127289,
        0.13982228934764862,
        0.06113157048821449,
        0.26176151633262634,
        0.16059355437755585,
        0.1724645048379898,
        0.0410052165389061,
        -0.021281037479639053,
        0.27459830045700073,
        0.15495751798152924,
        0.18711942434310913,
        -0.15584859251976013,
        -0.0014289590762928128,
        0.14151941239833832,
        -0.02532207779586315,
        0.20227515697479248,
        -0.2440091371536255,
        0.10081201046705246,
        0.18378597497940063,
        0.043366964906454086,
        0.2262517362833023,
        -0.17205314338207245,
        0.14799152314662933,
        0.21416787803173065,
        0.1142224669456482,
        0.20489491522312164,
        -0.22226160764694214,
        0.1301196664571762,
        0.26078781485557556,
        0.025060048326849937,
        0.1460898071527481,
        -0.2997828722000122
      ]
    ],
    "params": {
      "weight_ih_l0": [
        [
          20,
          10
        ],
        [
          -0.4212937653064728,
          -0.08774459362030029,
          -0.21480189263820648,
          -0.11927959322929382,
          -0.39506784081459045,
          0.17946207523345947,
          -0.40088459849357605,
          -0.028497129678726196,
          0.15545690059661865,
          -0.15074500441551208,
          0.25375616550445557,
          0.05640542507171631,
          0.24583375453948975,
          0.2869345545768738,
          -0.19742105901241302,
          0.16252732276916504,
          -0.1934869885444641,
          0.1401839256286621,
          -0.2336638867855072,
          0.20686715841293335,
          0.09053629636764526,
          -0.1750139594078064,
          -0.21935632824897766,
          0.11570477485656738,
          0.41726016998291016,
          0.21461713314056396,
          -0.04318481683731079,
          -0.021706998348236084,
          0.25419116020202637,
          -0.31081682443618774,
          0.14867562055587769,
          -0.14818596839904785,
          0.25874924659729004,
          -0.15953028202056885,
          0.0221136212348938,
          0.15101569890975952,
          0.30733829736709595,
          -0.06573295593261719,
          0.4079892635345459,
          -0.37836331129074097,
          -0.07977315783500671,
          -0.44595056772232056,
          0.03704714775085449,
          0.12691038846969604,
          -0.18103507161140442,
          0.185738205909729,
          -0.07249736785888672,
          -0.3886231482028961,
          0.3433406352996826,
          0.2757354974746704,
          0.22611463069915771,
          0.3567253351211548,
          0.16444939374923706,
          0.23777902126312256,
          0.3711127042770386,
          -0.09010577201843262,
          -0.34878435730934143,
          -0.21993620693683624,
          -0.05969884991645813,
          -0.049142807722091675,
          -0.003031015396118164,
          0.25628548860549927,
          0.14346212148666382,
          -0.33066606521606445,
          -0.1343453824520111,
          -0.10520684719085693,
          0.2721802592277527,
          -0.16223976016044617,
          -0.18710726499557495,
          -0.07190319895744324,
          -0.11375817656517029,
          -0.11011120676994324,
          -0.4375721514225006,
          0.39846163988113403,
          0.2380174994468689,
          -0.21161548793315887,
          -0.2790311872959137,
          0.015558362007141113,
          0.2548105716705322,
          -0.32093894481658936,
          -0.16890370845794678,
          0.18705862760543823,
          -0.28845930099487305,
          -0.049797266721725464,
          -0.33724284172058105,
          0.4147987961769104,
          0.24106615781784058,
          -0.41337069869041443,
          -0.24691277742385864,
          0.15852922201156616,
          0.024509549140930176,
          0.1185157299041748,
          -0.3658561110496521,
          -0.2394561916589737,
          0.20291757583618164,
          -0.3410012722015381,
          -0.0938062071800232,
          0.19666427373886108,
          0.232111394405365,
          0.027806520462036133,
          0.12964320182800293,
          0.19893860816955566,
          -0.05224555730819702,
          -0.12219268083572388,
          0.3415178656578064,
          0.43595314025878906,
          0.20714998245239258,
          -0.1954927146434784,
          -0.3890060484409332,
          -0.4414069652557373,
          0.0030937492847442627,
          -0.17158710956573486,
          -0.11253857612609863,
          -0.06288889050483704,
          0.42293548583984375,
          0.423903226852417,
          -0.0418127179145813,
          -0.13428959250450134,
          0.2171834111213684,
          -0.03568625450134277,
          -0.42552822828292847,
          0.14577710628509521,
          0.42814189195632935,
          -0.3544940948486328,
          -0.09658637642860413,
          0.0969851016998291,
          -0.3641701638698578,
          -0.382886677980423,
          0.333859920501709,
          -0.15835630893707275,
          0.260871946811676,
          0.03997984528541565,
          0.10911440849304199,
          -0.2980511784553528,
          -0.09551289677619934,
          0.2950049042701721,
          0.20512038469314575,
          -0.1293007731437683,
          0.0550156831741333,
          0.3423948884010315,
          -0.3918473720550537,
          0.2872668504714966,
          -0.13440561294555664,
          -0.09097924828529358,
          0.21281099319458008,
          -0.3715265393257141,
          -0.06756040453910828,
          0.42736726999282837,
          0.16095560789108276,
          -0.16536572575569153,
          -0.09741246700286865,
          0.35268378257751465,
          0.16896075010299683,
          0.3031541705131531,
          -0.28798365592956543,
          0.12893307209014893,
          0.07994306087493896,
          0.07795608043670654,
          0.4152609705924988,
          0.24756461381912231,
          0.3082655668258667,
          0.1963670253753662,
          0.1879568099975586,
          -0.07778927683830261,
          -0.3947036564350128,
          -0.3777746856212616,
          -0.2785360813140869,
          -0.28954532742500305,
          0.21052831411361694,
          0.13844168186187744,
          -0.12751850485801697,
          -0.34066909551620483,
          0.4402660131454468,
          0.3360597491264343,
          0.2126866579055786,
          0.4426676034927368,
          -0.23810003697872162,
          -0.2546791732311249,
          -0.2617729902267456,
          -0.021651506423950195,
          -0.3947727382183075,
          0.35403281450271606,
          0.011504411697387695,
          0.2227102518081665,
          -0.245596781373024,
          -0.04607278108596802,
          0.05882072448730469,
          -0.12240475416183472,
          0.4221249222755432,
          -0.20432043075561523,
          0.13885819911956787,
          -0.30343830585479736,
          -0.05293366312980652,
          -0.118645578622818,
          0.19295376539230347,
          0.31239765882492065,
          0.10876572132110596,
          -0.04060477018356323,
          -0.1145174503326416,
          0.3506285548210144
        ]
      ],
      "weight_hh_l0": [
        [
          20,
          5
        ],
        [
          -0.10567143559455872,
          0.3228510022163391,
          -0.19897979497909546,
          0.36857885122299194,
          0.4454231858253479,
          0.3065590262413025,
          0.2564971446990967,
          0.16645348072052002,
          -0.21989376842975616,
          0.005337387323379517,
          0.15398985147476196,
          -0.11685651540756226,
          0.08017086982727051,
          0.2619224190711975,
          -0.4143580198287964,
          -0.4070548117160797,
          -0.2675963044166565,
          0.0545535683631897,
          -0.08289459347724915,
          0.09637093544006348,
          -0.10634803771972656,
          -0.29276299476623535,
          0.059376537799835205,
          0.30289196968078613,
          -0.2685231864452362,
          0.3920166492462158,
          0.11006522178649902,
          0.440967321395874,
          -0.4099106788635254,
          -0.4280777871608734,
          0.15172350406646729,
          -0.41720134019851685,
          -0.3664899170398712,
          0.22740072011947632,
          0.21709084510803223,
          -0.40751031041145325,
          0.32180529832839966,
          -0.08695903420448303,
          0.3320200443267822,
          -0.2624456584453583,
          -0.4252418279647827,
          -0.2964646816253662,
          -0.06933057308197021,
          -0.4466431438922882,
          -0.030470579862594604,
          -0.22319693863391876,
          -0.10408985614776611,
          -6.35981559753418e-05,
          0.02509978413581848,
          -0.4374563694000244,
          0.23003607988357544,
          -0.27409595251083374,
          0.27254366874694824,
          0.40979212522506714,
          -0.14914178848266602,
          0.050192564725875854,
          0.24658489227294922,
          -0.03543120622634888,
          -0.3741953670978546,
          0.20089083909988403,
          0.2127588391304016,
          -0.2450103461742401,
          -0.3011155128479004,
          -0.07804563641548157,
          0.08768272399902344,
          -0.22616736590862274,
          -0.010749876499176025,
          -0.19325467944145203,
          -0.1742267608642578,
          -0.0612034797668457,
          -0.1704522669315338,
          0.3435247540473938,
          0.11751037836074829,
          0.4002264738082886,
          0.4037938714027405,
          0.0730934739112854,
          -0.1860523223876953,
          0.2719494104385376,
          -0.015563160181045532,
          0.3310644030570984,
          -0.09549281001091003,
          0.3954792618751526,
          0.059073686599731445,
          -0.09936213493347168,
          -0.29175734519958496,
          0.3309733271598816,
          0.05817073583602905,
          0.15469658374786377,
          0.18076753616333008,
          -0.023094862699508667,
          -0.2248314768075943,
          -0.13347819447517395,
          -0.019909054040908813,
          0.27769899368286133,
          -0.0326865017414093,
          -0.11337539553642273,
          -0.06077831983566284,
          0.07342201471328735,
          0.3569430708885193,
          0.3374863862991333
        ]
      ],
      "bias_ih_l0": [
        [
          20
        ],
        [
          -0.026156634092330933,
          0.059280216693878174,
          0.4055768847465515,
          0.19647735357284546,
          -0.047188758850097656,
          0.26511305570602417,
          0.20369952917099,
          -0.12010625004768372,
          0.18091243505477905,
          0.035446733236312866,
          -0.16603562235832214,
          -0.03507542610168457,
          0.42092013359069824,
          0.134335458278656,
          -0.36922234296798706,
          0.2849981188774109,
          0.09609055519104004,
          0.21999281644821167,
          0.001879185438156128,
          0.17786478996276855
        ]
      ],
      "bias_hh_l0": [
        [
          20
        ],
        [
          0.1336778998374939,
          0.3926604986190796,
          0.23601293563842773,
          -0.19571101665496826,
          0.234361469745636,
          -0.02652469277381897,
          0.2956995368003845,
          -0.15692082047462463,
          -0.1312602460384369,
          0.413557767868042,
          0.07879853248596191,
          0.06270170211791992,
          0.04586133360862732,
          0.029152125120162964,
          0.018818020820617676,
          -0.3886166512966156,
          0.4316861629486084,
          0.4269503355026245,
          -0.3078722357749939,
          0.11058491468429565
        ]
      ]
    },
    "initial_hidden": [
      [
        1,
        5
      ],
      [
        0.469538152217865,
        0.9933557510375977,
        0.5161114931106567,
        0.36502504348754883,
        0.5073345899581909
      ]
    ],
    "initial_cell": [
      [
        1,
        5
      ],
      [
        0.2586395740509033,
        0.20986413955688477,
        0.3872825503349304,
        0.7589672207832336,
        0.46128857135772705
      ]
    ]
  }
}