{
  "__comment__": "Generated with rnn.py",
  "lstm_forwards": {
    "input": [
      [
        7,
        10
      ],
      [
        0.028979241847991943,
        0.4018985629081726,
        0.25984418392181396,
        0.3666413426399231,
        0.05830073356628418,
        0.7006447315216064,
        0.05179738998413086,
        0.4681392312049866,
        0.6738061308860779,
        0.33146196603775024,
        0.7837080359458923,
        0.5630632042884827,
        0.7748504877090454,
        0.8208025693893433,
        0.2792765498161316,
        0.6817110776901245,
        0.283674955368042,
        0.6567304134368896,
        0.23875582218170166,
        0.731284499168396,
        0.6012226343154907,
        0.30432844161987305,
        0.25475215911865234,
        0.6293618679046631,
        0.966511070728302,
        0.7399492263793945,
        0.45171791315078735,
        0.475730836391449,
        0.7841943502426147,
        0.15249621868133545,
        0.6662244200706482,
        0.33432304859161377,
        0.7892904281616211,
        0.3216397166252136,
        0.5247237682342529,
        0.6688407063484192,
        0.8436146974563599,
        0.4265083074569702,
        0.9561458826065063,
        0.0769769549369812,
        0.4108108878135681,
        0.0014120936393737793,
        0.5414199829101562,
        0.6418901085853577,
        0.29759663343429565,
        0.7076616287231445,
        0.4189454913139343,
        0.06550610065460205,
        0.8838664889335632,
        0.808281660079956,
        0.7528038620948792,
        0.8988310694694519,
        0.6838600039482117,
        0.765845000743866,
        0.9149166345596313,
        0.39925867319107056,
        0.11004722118377686,
        0.2541038393974304,
        0.4332546591758728,
        0.445056676864624,
        0.49661123752593994,
        0.786535918712616,
        0.6603955030441284,
        0.13030409812927246,
        0.3497973084449768,
        0.38237518072128296,
        0.8043068051338196,
        0.31861042976379395,
        0.29080772399902344,
        0.41960978507995605
      ]
    ],
    "output": [
      [
        7,
        5
      ],
      [
        0.06631247699260712,
        0.07870648056268692,
        0.10014763474464417,
        -0.11205249279737473,
        -0.011990353465080261,
        0.041514430195093155,
        0.053828123956918716,
        0.28111958503723145,
        -0.14887654781341553,
        0.02858728915452957,
        0.06643432378768921,
        0.10664676129817963,
        0.2906593382358551,
        -0.2564695477485657,
        -0.019516561180353165,
        0.09507978707551956,
        0.11615749448537827,
        0.3300357460975647,
        -0.26684999465942383,
        -0.02531961165368557,
        0.11278513818979263,
        0.09384342283010483,
        0.36583876609802246,
        -0.2909722626209259,
        -0.11656413227319717,
        0.08946870267391205,
        0.08480009436607361,
        0.36092621088027954,
        -0.2992978096008301,
        -0.2242167890071869,
        0.09501424431800842,
        0.1230509802699089,
        0.36618563532829285,
        -0.2919698655605316,
        -0.13023428618907928
      ]
    ],
    "params": {
      "weight_ih_l0": [
        [
          20,
          10
        ],
        [
          -0.16890370845794678,
          0.18705862760543823,
          -0.28845930099487305,
          -0.049797266721725464,
          -0.33724284172058105,
          0.4147987961769104,
          0.24106615781784058,
          -0.41337069869041443,
          -0.24691277742385864,
          0.15852922201156616,
          0.024509549140930176,
          0.1185157299041748,
          -0.3658561110496521,
          -0.2394561916589737,
          0.20291757583618164,
          -0.3410012722015381,
          -0.0938062071800232,
          0.19666427373886108,
          0.232111394405365,
          0.027806520462036133,
          0.12964320182800293,
          0.19893860816955566,
          -0.05224555730819702,
          -0.12219268083572388,
          0.3415178656578064,
          0.43595314025878906,
          0.20714998245239258,
          -0.1954927146434784,
          -0.3890060484409332,
          -0.4414069652557373,
          0.0030937492847442627,
          -0.17158710956573486,
          -0.11253857612609863,
          -0.06288889050483704,
          0.42293548583984375,
          0.423903226852417,
          -0.0418127179145813,
          -0.13428959250450134,
          0.2171834111213684,
          -0.03568625450134277,
          -0.42552822828292847,
          0.14577710628509521,
          0.42814189195632935,
          -0.3544940948486328,
          -0.09658637642860413,
          0.0969851016998291,
          -0.3641701638698578,
          -0.382886677980423,
          0.333859920501709,
          -0.15835630893707275,
          0.260871946811676,
          0.03997984528541565,
          0.10911440849304199,
          -0.2980511784553528,
          -0.09551289677619934,
          0.2950049042701721,
          0.20512038469314575,
          -0.1293007731437683,
          0.0550156831741333,
          0.3423948884010315,
          -0.3918473720550537,
          0.2872668504714966,
          -0.13440561294555664,
          -0.09097924828529358,
          0.21281099319458008,
          -0.3715265393257141,
          -0.06756040453910828,
          0.42736726999282837,
          0.16095560789108276,
          -0.16536572575569153,
          -0.09741246700286865,
          0.35268378257751465,
          0.16896075010299683,
          0.3031541705131531,
          -0.28798365592956543,
          0.12893307209014893,
          0.07994306087493896,
          0.07795608043670654,
          0.4152609705924988,
          0.24756461381912231,
          0.3082655668258667,
          0.1963670253753662,
          0.1879568099975586,
          -0.07778927683830261,
          -0.3947036564350128,
          -0.3777746856212616,
          -0.2785360813140869,
          -0.28954532742500305,
          0.21052831411361694,
          0.13844168186187744,
          -0.12751850485801697,
          -0.34066909551620483,
          0.4402660131454468,
          0.3360597491264343,
          0.2126866579055786,
          0.4426676034927368,
          -0.23810003697872162,
          -0.2546791732311249,
          -0.2617729902267456,
          -0.021651506423950195,
          -0.3947727382183075,
          0.35403281450271606,
          0.011504411697387695,
          0.2227102518081665,
          -0.245596781373024,
          -0.04607278108596802,
          0.05882072448730469,
          -0.12240475416183472,
          0.4221249222755432,
          -0.20432043075561523,
          0.13885819911956787,
          -0.30343830585479736,
          -0.05293366312980652,
          -0.118645578622818,
          0.19295376539230347,
          0.31239765882492065,
          0.10876572132110596,
          -0.04060477018356323,
          -0.1145174503326416,
          0.3506285548210144,
          -0.10567143559455872,
          0.3228510022163391,
          -0.19897979497909546,
          0.36857885122299194,
          0.4454231858253479,
          0.3065590262413025,
          0.2564971446990967,
          0.16645348072052002,
          -0.21989376842975616,
          0.005337387323379517,
          0.15398985147476196,
          -0.11685651540756226,
          0.08017086982727051,
          0.2619224190711975,
          -0.4143580198287964,
          -0.4070548117160797,
          -0.2675963044166565,
          0.0545535683631897,
          -0.08289459347724915,
          0.09637093544006348,
          -0.10634803771972656,
          -0.29276299476623535,
          0.059376537799835205,
          0.30289196968078613,
          -0.2685231864452362,
          0.3920166492462158,
          0.11006522178649902,
          0.440967321395874,
          -0.4099106788635254,
          -0.4280777871608734,
          0.15172350406646729,
          -0.41720134019851685,
          -0.3664899170398712,
          0.22740072011947632,
          0.21709084510803223,
          -0.40751031041145325,
          0.32180529832839966,
          -0.08695903420448303,
          0.3320200443267822,
          -0.2624456584453583,
          -0.4252418279647827,
          -0.2964646816253662,
          -0.06933057308197021,
          -0.4466431438922882,
          -0.030470579862594604,
          -0.22319693863391876,
          -0.10408985614776611,
          -6.35981559753418e-05,
          0.02509978413581848,
          -0.4374563694000244,
          0.23003607988357544,
          -0.27409595251083374,
          0.27254366874694824,
          0.40979212522506714,
          -0.14914178848266602,
          0.050192564725875854,
          0.24658489227294922,
          -0.03543120622634888,
          -0.3741953670978546,
          0.20089083909988403,
          0.2127588391304016,
          -0.2450103461742401,
          -0.3011155128479004,
          -0.07804563641548157,
          0.08768272399902344,
          -0.22616736590862274,
          -0.010749876499176025,
          -0.19325467944145203,
          -0.1742267608642578,
          -0.0612034797668457,
          -0.1704522669315338,
          0.3435247540473938,
          0.11751037836074829,
          0.4002264738082886,
          0.4037938714027405,
          0.0730934739112854,
          -0.1860523223876953,
          0.2719494104385376,
          -0.015563160181045532,
          0.3310644030570984
        ]
      ],
      "weight_hh_l0": [
        [
          20,
          5
        ],
        [
          -0.09549281001091003,
          0.3954792618751526,
          0.059073686599731445,
          -0.09936213493347168,
          -0.29175734519958496,
          0.3309733271598816,
          0.05817073583602905,
          0.15469658374786377,
          0.18076753616333008,
          -0.023094862699508667,
          -0.2248314768075943,
          -0.13347819447517395,
          -0.019909054040908813,
          0.27769899368286133,
          -0.0326865017414093,
          -0.11337539553642273,
          -0.06077831983566284,
          0.07342201471328735,
          0.3569430708885193,
          0.3374863862991333,
          -0.026156634092330933,
          0.059280216693878174,
          0.4055768847465515,
          0.19647735357284546,
          -0.047188758850097656,
          0.26511305570602417,
          0.20369952917099,
          -0.12010625004768372,
          0.18091243505477905,
          0.035446733236312866,
          -0.16603562235832214,
          -0.03507542610168457,
          0.42092013359069824,
          0.134335458278656,
          -0.36922234296798706,
          0.2849981188774109,
          0.09609055519104004,
          0.21999281644821167,
          0.001879185438156128,
          0.17786478996276855,
          0.1336778998374939,
          0.3926604986190796,
          0.23601293563842773,
          -0.19571101665496826,
          0.234361469745636,
          -0.02652469277381897,
          0.2956995368003845,
          -0.15692082047462463,
          -0.1312602460384369,
          0.413557767868042,
          0.07879853248596191,
          0.06270170211791992,
          0.04586133360862732,
          0.029152125120162964,
          0.018818020820617676,
          -0.3886166512966156,
          0.4316861629486084,
          0.4269503355026245,
          -0.3078722357749939,
          0.11058491468429565,
          0.369667112827301,
          0.08660006523132324,
          0.19236528873443604,
          0.33307957649230957,
          0.18983376026153564,
          -0.08083593845367432,
          -0.37176594138145447,
          -0.21090568602085114,
          -0.266252726316452,
          0.009046405553817749,
          -0.31665465235710144,
          0.2839771509170532,
          0.08808958530426025,
          -0.19370338320732117,
          -0.25914597511291504,
          0.14649635553359985,
          -0.10705387592315674,
          0.08544260263442993,
          0.04201769828796387,
          0.05562770366668701,
          -0.06188902258872986,
          -0.08763706684112549,
          -0.1048642098903656,
          0.1724458932876587,
          -0.2883174419403076,
          0.010480552911758423,
          -0.181722491979599,
          -0.4249991774559021,
          0.12584424018859863,
          0.13779926300048828,
          0.3979531526565552,
          0.2938392162322998,
          0.4377140402793884,
          -0.35142767429351807,
          -0.38927409052848816,
          0.1390950083732605,
          0.21917212009429932,
          0.19702237844467163,
          -0.294494092464447,
          0.3499775528907776
        ]
      ],
      "bias_ih_l0": [
        [
          20
        ],
        [
          -0.38872578740119934,
          0.11917036771774292,
          -0.17122721672058105,
          -0.1609419882297516,
          0.3533930778503418,
          0.38681089878082275,
          0.1736466884613037,
          0.20043057203292847,
          0.017463743686676025,
          -0.2741876244544983,
          0.11660569906234741,
          0.3846205472946167,
          0.18738818168640137,
          -0.4011371433734894,
          -0.09414991736412048,
          0.14265751838684082,
          -0.08247581124305725,
          -0.1391119360923767,
          -0.3920903503894806,
          0.04578894376754761
        ]
      ],
      "bias_hh_l0": [
        [
          20
        ],
        [
          0.11979854106903076,
          -0.4064636826515198,
          0.08537733554840088,
          0.13457506895065308,
          0.16687500476837158,
          0.2913247346878052,
          -0.26425665616989136,
          0.14568889141082764,
          0.0413472056388855,
          -0.12987744808197021,
          -0.027245908975601196,
          0.44127076864242554,
          0.014410555362701416,
          -0.12072527408599854,
          0.006560266017913818,
          -0.21587932109832764,
          -0.25950539112091064,
          -0.10081756114959717,
          0.23162734508514404,
          -0.03462454676628113
        ]
      ]
    }
  },
  "lstm_bidirectional": {
    "input": [
      [
        7,
        10
      ],
      [
        0.028979241847991943,
        0.4018985629081726,
        0.25984418392181396,
        0.3666413426399231,
        0.05830073356628418,
        0.7006447315216064,
        0.05179738998413086,
        0.4681392312049866,
        0.6738061308860779,
        0.33146196603775024,
        0.7837080359458923,
        0.5630632042884827,
        0.7748504877090454,
        0.8208025693893433,
        0.2792765498161316,
        0.6817110776901245,
        0.283674955368042,
        0.6567304134368896,
        0.23875582218170166,
        0.731284499168396,
        0.6012226343154907,
        0.30432844161987305,
        0.25475215911865234,
        0.6293618679046631,
        0.966511070728302,
        0.7399492263793945,
        0.45171791315078735,
        0.475730836391449,
        0.7841943502426147,
        0.15249621868133545,
        0.6662244200706482,
        0.33432304859161377,
        0.7892904281616211,
        0.3216397166252136,
        0.5247237682342529,
        0.6688407063484192,
        0.8436146974563599,
        0.4265083074569702,
        0.9561458826065063,
        0.0769769549369812,
        0.4108108878135681,
        0.0014120936393737793,
        0.5414199829101562,
        0.6418901085853577,
        0.29759663343429565,
        0.7076616287231445,
        0.4189454913139343,
        0.06550610065460205,
        0.8838664889335632,
        0.808281660079956,
        0.7528038620948792,
        0.8988310694694519,
        0.6838600039482117,
        0.765845000743866,
        0.9149166345596313,
        0.39925867319107056,
        0.11004722118377686,
        0.2541038393974304,
        0.4332546591758728,
        0.445056676864624,
        0.49661123752593994,
        0.786535918712616,
        0.6603955030441284,
        0.13030409812927246,
        0.3497973084449768,
        0.38237518072128296,
        0.8043068051338196,
        0.31861042976379395,
        0.29080772399902344,
        0.41960978507995605
      ]
    ],
    "output": [
      [
        7,
        10
      ],
      [
        -0.0871020257472992,
        -0.13701581954956055,
        -0.027496159076690674,
        0.010120377875864506,
        -0.0424676351249218,
        0.32350921630859375,
        0.3045875132083893,
        0.08162324875593185,
        -0.16527563333511353,
        -0.2286289930343628,
        -0.13560286164283752,
        -0.2657482624053955,
        -0.0731714591383934,
        -0.008141581900417805,
        -0.012584668584167957,
        0.33636996150016785,
        0.3528065085411072,
        0.06333140283823013,
        0.03864240646362305,
        -0.20227265357971191,
        -0.14684708416461945,
        -0.2667151391506195,
        -0.09319201856851578,
        0.059441160410642624,
        -0.020627737045288086,
        0.38583874702453613,
        0.3077109456062317,
        0.07632508873939514,
        -0.19556544721126556,
        -0.20580482482910156,
        -0.14607812464237213,
        -0.26779165863990784,
        -0.05434364825487137,
        0.08346226066350937,
        -0.05259513109922409,
        0.29116290807724,
        0.3364911675453186,
        0.1010613813996315,
        -0.22692100703716278,
        -0.21675501763820648,
        -0.1334337294101715,
        -0.24049556255340576,
        -0.10340873152017593,
        0.07351043075323105,
        -0.07930625975131989,
        0.30748113989830017,
        0.2978488504886627,
        0.07301366329193115,
        -0.18650905787944794,
        -0.16261908411979675,
        -0.21263951063156128,
        -0.3044166564941406,
        -0.11787951737642288,
        0.05555301532149315,
        -0.07669680565595627,
        0.30228838324546814,
        0.24476654827594757,
        0.07956193387508392,
        0.01257198117673397,
        -0.1657039374113083,
        -0.20060399174690247,
        -0.3152870535850525,
        -0.043931879103183746,
        0.016682231798768044,
        -0.08297852426767349,
        0.17926250398159027,
        0.14982633292675018,
        0.09256668388843536,
        0.0013123510871082544,
        -0.10717662423849106
      ]
    ],
    "params": {
      "weight_ih_l0": [
        [
          20,
          10
        ],
        [
          -0.10472378134727478,
          0.18576228618621826,
          0.24809658527374268,
          -0.08251723647117615,
          -0.11292541027069092,
          0.07563626766204834,
          -0.24316014349460602,
          0.3295583724975586,
          -0.1247757077217102,
          -0.15053382515907288,
          0.40899360179901123,
          -0.34620988368988037,
          -0.12031883001327515,
          0.4046825170516968,
          -0.20777098834514618,
          -0.09352457523345947,
          0.4288407564163208,
          -0.1480061411857605,
          0.20646387338638306,
          0.19189929962158203,
          0.08628445863723755,
          -0.3791098892688751,
          -0.2896270751953125,
          -0.3570580780506134,
          -0.4407252371311188,
          -0.1247197687625885,
          0.05247977375984192,
          -0.3916231393814087,
          -0.4050084948539734,
          0.022472023963928223,
          -0.1662948727607727,
          0.08252596855163574,
          0.09275341033935547,
          0.44496142864227295,
          -0.016185462474822998,
          -0.36194849014282227,
          -0.29541152715682983,
          -0.41202056407928467,
          -0.08199205994606018,
          0.051235735416412354,
          0.1475963592529297,
          0.0853433609008789,
          0.10268229246139526,
          0.06184893846511841,
          -0.03966483473777771,
          -0.2006286233663559,
          0.1054641604423523,
          0.05887889862060547,
          -0.12569725513458252,
          0.32590335607528687,
          -0.4352424740791321,
          0.13143330812454224,
          -0.2524581551551819,
          0.2366979718208313,
          0.34975361824035645,
          0.3168334364891052,
          0.17148208618164062,
          -0.21355071663856506,
          -0.09859314560890198,
          -0.12546086311340332,
          0.054107666015625,
          -0.21708135306835175,
          0.21743780374526978,
          0.26046061515808105,
          -0.181059330701828,
          -0.12883055210113525,
          -0.31419581174850464,
          -0.2483682483434677,
          -0.22012414038181305,
          0.3114815950393677,
          -0.38218969106674194,
          0.13389092683792114,
          0.4010165333747864,
          -0.29714587330818176,
          -0.39429500699043274,
          0.24234509468078613,
          0.2738741636276245,
          0.18713873624801636,
          0.3524043560028076,
          0.28271549940109253,
          -0.06947559118270874,
          0.33099305629730225,
          -0.2248939573764801,
          0.1913433074951172,
          -0.2697347402572632,
          0.10034161806106567,
          0.241521418094635,
          0.1672954559326172,
          0.24353474378585815,
          -0.06754499673843384,
          0.15349441766738892,
          0.057125627994537354,
          0.37224888801574707,
          0.26017826795578003,
          -0.32441309094429016,
          0.175456702709198,
          0.23797297477722168,
          0.12323296070098877,
          -0.22605285048484802,
          0.43530118465423584,
          -0.31319689750671387,
          -0.3637426495552063,
          0.14498603343963623,
          0.18890154361724854,
          0.03392568230628967,
          0.016896724700927734,
          0.18739533424377441,
          0.3165898323059082,
          -0.216245636343956,
          0.14025509357452393,
          -0.16477134823799133,
          -0.23129704594612122,
          -0.2322312891483307,
          -0.33284854888916016,
          0.37730473279953003,
          -0.15146219730377197,
          -0.12569043040275574,
          -0.010818034410476685,
          -0.29132142663002014,
          0.2898150682449341,
          -0.13931521773338318,
          0.23757952451705933,
          0.1299128532409668,
          -0.4439351558685303,
          -0.41118890047073364,
          -0.4358842670917511,
          0.4013267755508423,
          0.40791285037994385,
          0.1529480218887329,
          -0.18586376309394836,
          0.1470850110054016,
          -0.3378966152667999,
          0.07258212566375732,
          -0.06111264228820801,
          0.3064066171646118,
          0.028085529804229736,
          -0.0021357834339141846,
          -0.03961056470870972,
          0.42928361892700195,
          -0.31275472044944763,
          0.2028193473815918,
          -0.4023929536342621,
          0.08213317394256592,
          -0.37484392523765564,
          0.21726876497268677,
          0.400177001953125,
          -0.21453745663166046,
          0.40111440420150757,
          -0.40044939517974854,
          0.21341729164123535,
          0.0761060118675232,
          -0.10238870978355408,
          -0.06176254153251648,
          0.17872321605682373,
          -0.08148682117462158,
          -0.43257176876068115,
          -0.16154766082763672,
          0.3793577551841736,
          -0.38510408997535706,
          -0.1507560908794403,
          0.18456661701202393,
          0.3269808292388916,
          -0.33627229928970337,
          -0.30946654081344604,
          0.2697925567626953,
          0.30419301986694336,
          0.29089832305908203,
          0.2567189335823059,
          -0.38131195306777954,
          0.14743518829345703,
          -0.01619735360145569,
          0.068667471408844,
          -0.17096459865570068,
          0.4326969385147095,
          -0.024234682321548462,
          -0.30607685446739197,
          0.23170804977416992,
          -0.0093841552734375,
          -0.2787914276123047,
          -0.19764389097690582,
          -0.2820267081260681,
          0.08792257308959961,
          0.09596139192581177,
          -0.12380227446556091,
          0.03668630123138428,
          -0.24277363717556,
          -0.4436272978782654,
          -0.010779857635498047,
          0.423933207988739,
          -0.3331338167190552,
          0.08871030807495117,
          -0.22474899888038635,
          -0.0703381597995758,
          0.10443389415740967,
          -0.22042401134967804,
          -0.3834809362888336,
          -0.00694158673286438,
          -0.033315688371658325,
          0.3236961364746094,
          0.17846357822418213
        ]
      ],
      "weight_hh_l0": [
        [
          20,
          5
        ],
        [
          0.2570543885231018,
          -0.2809663712978363,
          -0.41904473304748535,
          -0.2702654004096985,
          -0.3593619465827942,
          -0.015588432550430298,
          -0.1328141987323761,
          -0.041062891483306885,
          -0.12624630331993103,
          -0.07386699318885803,
          0.09936463832855225,
          0.43826746940612793,
          -0.09235534071922302,
          0.36709731817245483,
          0.4016965627670288,
          0.21399885416030884,
          -0.11810290813446045,
          0.11885792016983032,
          -0.2931837737560272,
          -0.038108229637145996,
          -0.20914149284362793,
          -0.3424553871154785,
          -0.37872278690338135,
          -0.16139861941337585,
          0.1115761399269104,
          -0.009430944919586182,
          0.015409141778945923,
          0.18771570920944214,
          0.1278148889541626,
          0.3006319999694824,
          -0.10714882612228394,
          0.10258173942565918,
          -0.004448205232620239,
          -0.1535084843635559,
          -0.30020737648010254,
          -0.12395811080932617,
          -0.42324572801589966,
          0.053019940853118896,
          -0.3554338216781616,
          -0.15552139282226562,
          -0.17474013566970825,
          0.383300244808197,
          -0.36453402042388916,
          -0.1067952811717987,
          0.16013073921203613,
          0.12643200159072876,
          0.3669794797897339,
          0.10853075981140137,
          0.2628929615020752,
          -0.2684556841850281,
          0.2776137590408325,
          0.009705126285552979,
          -0.0496746301651001,
          -0.20069509744644165,
          0.1657232642173767,
          0.2315136194229126,
          -0.32739999890327454,
          -0.34582313895225525,
          0.17841744422912598,
          -0.39575859904289246,
          -0.42067763209342957,
          0.3235296607017517,
          0.1423351764678955,
          0.034407198429107666,
          -0.002583026885986328,
          0.18579572439193726,
          -0.31943243741989136,
          0.37184661626815796,
          -0.06230345368385315,
          0.043884098529815674,
          -0.42335546016693115,
          0.027233809232711792,
          -0.2732478380203247,
          0.2516421675682068,
          -0.42481768131256104,
          0.4030888080596924,
          -0.10484489798545837,
          -0.15255451202392578,
          -0.002874523401260376,
          -0.3655567467212677,
          0.14423304796218872,
          0.3647770881652832,
          -0.18786507844924927,
          -0.14522448182106018,
          -0.3726539611816406,
          0.10894936323165894,
          0.32940590381622314,
          0.3640708923339844,
          0.1435224413871765,
          0.200600266456604,
          -0.32824069261550903,
          -0.17983251810073853,
          0.4364001750946045,
          0.0065985918045043945,
          0.18194401264190674,
          -0.33134639263153076,
          -0.36906319856643677,
          0.35305583477020264,
          -0.19852957129478455,
          -0.24161244928836823
        ]
      ],
      "bias_ih_l0": [
        [
          20
        ],
        [
          -0.01939767599105835,
          -0.03247252106666565,
          0.19538158178329468,
          0.27906733751296997,
          0.39682793617248535,
          -0.13240128755569458,
          -0.11595943570137024,
          -0.3506079912185669,
          -0.22712229192256927,
          -0.0835929811000824,
          -0.22895191609859467,
          0.01098644733428955,
          -0.09594276547431946,
          0.25714367628097534,
          -0.3906130790710449,
          -0.009030520915985107,
          -0.16911417245864868,
          0.03013041615486145,
          -0.2415575385093689,
          -0.4404267966747284
        ]
      ],
      "bias_hh_l0": [
        [
          20
        ],
        [
          -0.010437577962875366,
          0.04001337289810181,
          0.3882693648338318,
          -0.30457937717437744,
          -0.06664818525314331,
          0.36214709281921387,
          0.43073010444641113,
          0.06823670864105225,
          -0.21811214089393616,
          0.26377755403518677,
          -0.3238561451435089,
          -0.37480947375297546,
          0.03837639093399048,
          -0.26113760471343994,
          0.14277660846710205,
          -0.1936829686164856,
          -0.3232229948043823,
          -0.16340243816375732,
          -0.2914315462112427,
          -0.3148719072341919
        ]
      ],
      "weight_ih_l0_reverse": [
        [
          20,
          10
        ],
        [
          0.23532778024673462,
          -0.04486653208732605,
          -0.1917477548122406,
          -0.4384560286998749,
          0.3424246907234192,
          -0.26458725333213806,
          0.3642039895057678,
          -0.37972724437713623,
          -0.2061091512441635,
          0.42966896295547485,
          0.1875072717666626,
          -0.28683772683143616,
          -0.29328030347824097,
          -0.22544579207897186,
          0.17082661390304565,
          0.2332177758216858,
          -0.1660136580467224,
          -0.37525302171707153,
          -0.29879939556121826,
          0.2789362072944641,
          0.07807004451751709,
          0.18286049365997314,
          0.23020786046981812,
          -0.2880701422691345,
          -0.33700117468833923,
          -0.31879866123199463,
          0.4397103190422058,
          0.013266414403915405,
          0.025487452745437622,
          -0.4364275634288788,
          0.07362920045852661,
          -0.41595372557640076,
          -0.29297178983688354,
          0.02862614393234253,
          -0.3988375663757324,
          0.2000020146369934,
          0.31739193201065063,
          -0.1875542402267456,
          0.3249964714050293,
          0.3482521176338196,
          -0.4128365218639374,
          0.022763043642044067,
          -0.1185840368270874,
          -0.06935247778892517,
          0.2514845132827759,
          -0.22942286729812622,
          -0.2968115508556366,
          0.05124738812446594,
          0.09347033500671387,
          -0.2408701777458191,
          -0.19554153084754944,
          -0.40239545702934265,
          0.25330716371536255,
          -0.22814737260341644,
          0.21580559015274048,
          -0.37022697925567627,
          -0.2989061176776886,
          -0.014698505401611328,
          0.4445379972457886,
          -0.05809515714645386,
          -0.042919278144836426,
          -0.09833687543869019,
          0.06445330381393433,
          -0.13802340626716614,
          0.34582340717315674,
          0.04562133550643921,
          0.23014599084854126,
          0.014784544706344604,
          0.33567965030670166,
          -0.2825797498226166,
          -0.22840818762779236,
          -0.17681756615638733,
          -0.18562215566635132,
          0.03190666437149048,
          0.20697462558746338,
          -0.3293929100036621,
          -0.31468528509140015,
          0.27088022232055664,
          0.20529437065124512,
          0.09411245584487915,
          0.18929779529571533,
          0.052291154861450195,
          -0.1530764400959015,
          -0.07171463966369629,
          -0.11731293797492981,
          -0.18879234790802002,
          -0.272161066532135,
          -0.06730517745018005,
          -0.2884201407432556,
          -0.25856801867485046,
          -0.2799476385116577,
          0.415097177028656,
          0.4413159489631653,
          0.24540841579437256,
          -0.09101203083992004,
          0.11750423908233643,
          0.18498587608337402,
          0.06982666254043579,
          0.2312910556793213,
          0.16859948635101318,
          0.14448189735412598,
          0.425298273563385,
          -0.37128394842147827,
          0.04285314679145813,
          0.3580138683319092,
          0.36584562063217163,
          -0.1264609396457672,
          0.2982925772666931,
          -0.26643654704093933,
          -0.02813434600830078,
          0.4048464894294739,
          -0.07607027888298035,
          0.23263204097747803,
          0.4463333487510681,
          -0.1907065212726593,
          0.19067126512527466,
          -0.1757735013961792,
          -0.12311935424804688,
          0.33156222105026245,
          0.1416502594947815,
          -0.3887925148010254,
          0.4191664457321167,
          0.31622636318206787,
          0.24825936555862427,
          0.05073273181915283,
          0.20580244064331055,
          -0.13980495929718018,
          -0.15607976913452148,
          0.2354755401611328,
          0.06985551118850708,
          0.42852169275283813,
          0.008026450872421265,
          -0.025503873825073242,
          0.2597388029098511,
          -0.2176256626844406,
          -0.3972901999950409,
          0.01499214768409729,
          0.44000154733657837,
          -0.341705858707428,
          0.07020866870880127,
          -0.2926639914512634,
          -0.3842684030532837,
          -0.003297358751296997,
          -0.15912452340126038,
          -0.10666140913963318,
          0.147394061088562,
          -0.10486036539077759,
          0.05011814832687378,
          -0.01066964864730835,
          0.3407735824584961,
          0.15436816215515137,
          -0.1620132327079773,
          -0.3363908529281616,
          0.29678022861480713,
          -0.04758283495903015,
          0.17986243963241577,
          -0.1934688687324524,
          0.31691598892211914,
          0.3031129240989685,
          0.02129259705543518,
          0.11600768566131592,
          0.08985710144042969,
          0.1694774031639099,
          -0.055884361267089844,
          -0.3853209614753723,
          -0.3131749629974365,
          0.06928306818008423,
          -0.44542816281318665,
          -0.42656105756759644,
          -0.24641767144203186,
          0.23136252164840698,
          -0.03344738483428955,
          -0.3177259564399719,
          -0.2985425889492035,
          -0.17381161451339722,
          -0.32955068349838257,
          0.4172988533973694,
          -0.28659695386886597,
          -0.23704738914966583,
          -0.3143709897994995,
          -0.16181567311286926,
          0.3555678129196167,
          0.16373580694198608,
          0.0333116352558136,
          -0.44125404953956604,
          0.180763840675354,
          0.41848278045654297,
          -0.007150858640670776,
          0.3040797710418701,
          -0.1442883312702179,
          -0.4193457365036011,
          -0.011171847581863403,
          0.17827671766281128,
          -0.19646331667900085,
          0.02591589093208313,
          0.07478153705596924,
          0.42923563718795776,
          -0.2332996129989624,
          -0.3885422945022583,
          -0.20827078819274902
        ]
      ],
      "weight_hh_l0_reverse": [
        [
          20,
          5
        ],
        [
          0.32228749990463257,
          -0.20758621394634247,
          -0.029342979192733765,
          -0.321572482585907,
          -0.23023732006549835,
          -0.38379597663879395,
          0.13378560543060303,
          0.3018290400505066,
          -0.05954664945602417,
          -0.03241699934005737,
          0.11465698480606079,
          -0.0658363401889801,
          0.037566304206848145,
          0.1837201714515686,
          0.34419721364974976,
          0.22829073667526245,
          0.1094633936882019,
          0.3831503987312317,
          -0.39865347743034363,
          -0.294455885887146,
          0.3635566234588623,
          0.4157792329788208,
          -0.20847024023532867,
          0.3511331081390381,
          -0.051305949687957764,
          -0.12495952844619751,
          -0.017265409231185913,
          -0.11626172065734863,
          0.12314832210540771,
          0.03393644094467163,
          -0.0022357404232025146,
          -0.18802610039710999,
          0.2716442942619324,
          -0.27713024616241455,
          -0.006140381097793579,
          0.2945328950881958,
          -0.23840360343456268,
          -0.2985880970954895,
          0.11889111995697021,
          -0.3698253333568573,
          -0.18648898601531982,
          0.3902830481529236,
          0.2578599452972412,
          0.4044301509857178,
          -0.42756763100624084,
          -0.42058685421943665,
          0.11133098602294922,
          0.15842992067337036,
          -0.25919049978256226,
          0.1609976887702942,
          0.07726871967315674,
          -0.19016417860984802,
          0.41753220558166504,
          0.3434661030769348,
          0.37046605348587036,
          -0.145842045545578,
          0.0026547908782958984,
          -0.21295276284217834,
          0.3660038709640503,
          0.4062587022781372,
          -0.22178123891353607,
          0.1299757957458496,
          0.3798915147781372,
          0.05688953399658203,
          -0.1505240797996521,
          -0.06838640570640564,
          -0.29336801171302795,
          0.437955379486084,
          -0.22417180240154266,
          0.0977981686592102,
          -0.39149150252342224,
          0.04308709502220154,
          0.3156849145889282,
          -0.3676692843437195,
          0.15871024131774902,
          0.009226858615875244,
          0.24210387468338013,
          -0.21035262942314148,
          -0.2676527500152588,
          -0.1999989002943039,
          -0.0650210976600647,
          0.37672048807144165,
          -0.02747189998626709,
          -0.32817313075065613,
          -0.254170686006546,
          -0.10569974780082703,
          -0.1310655176639557,
          -0.0388542115688324,
          -0.1800452172756195,
          -0.21325258910655975,
          0.12487822771072388,
          0.1338215470314026,
          -0.18779560923576355,
          0.16887420415878296,
          -0.17706754803657532,
          0.020907044410705566,
          -0.09219807386398315,
          0.011320263147354126,
          0.36487025022506714,
          -0.18088895082473755
        ]
      ],
      "bias_ih_l0_reverse": [
        [
          20
        ],
        [
          0.4038936495780945,
          -0.020421653985977173,
          -0.3039565682411194,
          0.15677666664123535,
          0.05032983422279358,
          0.43874549865722656,
          0.342509925365448,
          -0.4154829680919647,
          0.384457528591156,
          0.409994900226593,
          0.2330809235572815,
          -0.02281668782234192,
          0.4334903955459595,
          0.028847604990005493,
          0.02613893151283264,
          -0.020932793617248535,
          0.2408730387687683,
          -0.03876620531082153,
          0.04363203048706055,
          -0.17448478937149048
        ]
      ],
      "bias_hh_l0_reverse": [
        [
          20
        ],
        [
          0.05684459209442139,
          0.22959858179092407,
          0.23804938793182373,
          0.41938483715057373,
          0.04019331932067871,
          -0.4145001769065857,
          -0.2725449800491333,
          -0.2149517983198166,
          -0.03502374887466431,
          -0.37277284264564514,
          0.3579283356666565,
          0.37461036443710327,
          -0.3232268691062927,
          -0.11621001362800598,
          -0.2730332612991333,
          -0.24435609579086304,
          0.4103155732154846,
          -0.21328772604465485,
          0.20178824663162231,
          0.239124596118927
        ]
      ]
    }
  },
  "lstm_initial": {
    "input": [
      [
        7,
        10
      ],
      [
        0.028979241847991943,
        0.4018985629081726,
        0.25984418392181396,
        0.3666413426399231,
        0.05830073356628418,
        0.7006447315216064,
        0.05179738998413086,
        0.4681392312049866,
        0.6738061308860779,
        0.33146196603775024,
        0.7837080359458923,
        0.5630632042884827,
        0.7748504877090454,
        0.8208025693893433,
        0.2792765498161316,
        0.6817110776901245,
        0.283674955368042,
        0.6567304134368896,
        0.23875582218170166,
        0.731284499168396,
        0.6012226343154907,
        0.30432844161987305,
        0.25475215911865234,
        0.6293618679046631,
        0.966511070728302,
        0.7399492263793945,
        0.45171791315078735,
        0.475730836391449,
        0.7841943502426147,
        0.15249621868133545,
        0.6662244200706482,
        0.33432304859161377,
        0.7892904281616211,
        0.3216397166252136,
        0.5247237682342529,
        0.6688407063484192,
        0.8436146974563599,
        0.4265083074569702,
        0.9561458826065063,
        0.0769769549369812,
        0.4108108878135681,
        0.0014120936393737793,
        0.5414199829101562,
        0.6418901085853577,
        0.29759663343429565,
        0.7076616287231445,
        0.4189454913139343,
        0.06550610065460205,
        0.8838664889335632,
        0.808281660079956,
        0.7528038620948792,
        0.8988310694694519,
        0.6838600039482117,
        0.765845000743866,
        0.9149166345596313,
        0.39925867319107056,
        0.11004722118377686,
        0.2541038393974304,
        0.4332546591758728,
        0.445056676864624,
        0.49661123752593994,
        0.786535918712616,
        0.6603955030441284,
        0.13030409812927246,
        0.3497973084449768,
        0.38237518072128296,
        0.8043068051338196,
        0.31861042976379395,
        0.29080772399902344,
        0.41960978507995605
      ]
    ],
    "output": [
      [
        7,
        5
      ],
      [
        0.15480422973632812,
        0.09216954559087753,
        0.3132968842983246,
        -0.03780319169163704,
        -0.13337571918964386,
        0.10237832367420197,
        0.062355637550354004,
        0.4270325303077698,
        -0.13761340081691742,
        -0.028835231438279152,
        0.1345186084508896,
        0.11436653137207031,
        0.34159526228904724,
        -0.2660575211048126,
        -0.04225476458668709,
        0.14440254867076874,
        0.12074229121208191,
        0.3716791272163391,
        -0.2753599286079407,
        -0.03703568875789642,
        0.14924085140228271,
        0.0960053950548172,
        0.4058459401130676,
        -0.299073189496994,
        -0.12588204443454742,
        0.11319293081760406,
        0.08606461435556412,
        0.3812165856361389,
        -0.3071241080760956,
        -0.23110616207122803,
        0.1126137375831604,
        0.1243436262011528,
        0.3818178176879883,
        -0.2969798445701599,
        -0.133217915892601
      ]
    ],
    "params": {
      "weight_ih_l0": [
        [
          20,
          10
        ],
        [
          -0.16890370845794678,
          0.18705862760543823,
          -0.28845930099487305,
          -0.049797266721725464,
          -0.33724284172058105,
          0.4147987961769104,
          0.24106615781784058,
          -0.41337069869041443,
          -0.24691277742385864,
          0.15852922201156616,
          0.024509549140930176,
          0.1185157299041748,
          -0.3658561110496521,
          -0.2394561916589737,
          0.20291757583618164,
          -0.3410012722015381,
          -0.0938062071800232,
          0.19666427373886108,
          0.232111394405365,
          0.027806520462036133,
          0.12964320182800293,
          0.19893860816955566,
          -0.05224555730819702,
          -0.12219268083572388,
          0.3415178656578064,
          0.43595314025878906,
          0.20714998245239258,
          -0.1954927146434784,
          -0.3890060484409332,
          -0.4414069652557373,
          0.0030937492847442627,
          -0.17158710956573486,
          -0.11253857612609863,
          -0.06288889050483704,
          0.42293548583984375,
          0.423903226852417,
          -0.0418127179145813,
          -0.13428959250450134,
          0.2171834111213684,
          -0.03568625450134277,
          -0.42552822828292847,
          0.14577710628509521,
          0.42814189195632935,
          -0.3544940948486328,
          -0.09658637642860413,
          0.0969851016998291,
          -0.3641701638698578,
          -0.382886677980423,
          0.333859920501709,
          -0.15835630893707275,
          0.260871946811676,
          0.03997984528541565,
          0.10911440849304199,
          -0.2980511784553528,
          -0.09551289677619934,
          0.2950049042701721,
          0.20512038469314575,
          -0.1293007731437683,
          0.0550156831741333,
          0.3423948884010315,
          -0.3918473720550537,
          0.2872668504714966,
          -0.13440561294555664,
          -0.09097924828529358,
          0.21281099319458008,
          -0.3715265393257141,
          -0.06756040453910828,
          0.42736726999282837,
          0.16095560789108276,
          -0.16536572575569153,
          -0.09741246700286865,
          0.35268378257751465,
          0.16896075010299683,
          0.3031541705131531,
          -0.28798365592956543,
          0.12893307209014893,
          0.07994306087493896,
          0.07795608043670654,
          0.4152609705924988,
          0.24756461381912231,
          0.3082655668258667,
          0.1963670253753662,
          0.1879568099975586,
          -0.07778927683830261,
          -0.3947036564350128,
          -0.3777746856212616,
          -0.2785360813140869,
          -0.28954532742500305,
          0.21052831411361694,
          0.13844168186187744,
          -0.12751850485801697,
          -0.34066909551620483,
          0.4402660131454468,
          0.3360597491264343,
          0.2126866579055786,
          0.4426676034927368,
          -0.23810003697872162,
          -0.2546791732311249,
          -0.2617729902267456,
          -0.021651506423950195,
          -0.3947727382183075,
          0.35403281450271606,
          0.011504411697387695,
          0.2227102518081665,
          -0.245596781373024,
          -0.04607278108596802,
          0.05882072448730469,
          -0.12240475416183472,
          0.4221249222755432,
          -0.20432043075561523,
          0.13885819911956787,
          -0.30343830585479736,
          -0.05293366312980652,
          -0.118645578622818,
          0.19295376539230347,
          0.31239765882492065,
          0.10876572132110596,
          -0.04060477018356323,
          -0.1145174503326416,
          0.3506285548210144,
          -0.10567143559455872,
          0.3228510022163391,
          -0.19897979497909546,
          0.36857885122299194,
          0.4454231858253479,
          0.3065590262413025,
          0.2564971446990967,
          0.16645348072052002,
          -0.21989376842975616,
          0.005337387323379517,
          0.15398985147476196,
          -0.11685651540756226,
          0.08017086982727051,
          0.2619224190711975,
          -0.4143580198287964,
          -0.4070548117160797,
          -0.2675963044166565,
          0.0545535683631897,
          -0.08289459347724915,
          0.09637093544006348,
          -0.10634803771972656,
          -0.29276299476623535,
          0.059376537799835205,
          0.30289196968078613,
          -0.2685231864452362,
          0.3920166492462158,
          0.11006522178649902,
          0.440967321395874,
          -0.4099106788635254,
          -0.4280777871608734,
          0.15172350406646729,
          -0.41720134019851685,
          -0.3664899170398712,
          0.22740072011947632,
          0.21709084510803223,
          -0.40751031041145325,
          0.32180529832839966,
          -0.08695903420448303,
          0.3320200443267822,
          -0.2624456584453583,
          -0.4252418279647827,
          -0.2964646816253662,
          -0.06933057308197021,
          -0.4466431438922882,
          -0.030470579862594604,
          -0.22319693863391876,
          -0.10408985614776611,
          -6.35981559753418e-05,
          0.02509978413581848,
          -0.4374563694000244,
          0.23003607988357544,
          -0.27409595251083374,
          0.27254366874694824,
          0.40979212522506714,
          -0.14914178848266602,
          0.050192564725875854,
          0.24658489227294922,
          -0.03543120622634888,
          -0.3741953670978546,
          0.20089083909988403,
          0.2127588391304016,
          -0.2450103461742401,
          -0.3011155128479004,
          -0.07804563641548157,
          0.08768272399902344,
          -0.22616736590862274,
          -0.010749876499176025,
          -0.19325467944145203,
          -0.1742267608642578,
          -0.0612034797668457,
          -0.1704522669315338,
          0.3435247540473938,
          0.11751037836074829,
          0.4002264738082886,
          0.4037938714027405,
          0.0730934739112854,
          -0.1860523223876953,
          0.2719494104385376,
          -0.015563160181045532,
          0.3310644030570984
        ]
      ],
      "weight_hh_l0": [
        [
          20,
          5
        ],
        [
          -0.09549281001091003,
          0.3954792618751526,
          0.059073686599731445,
          -0.09936213493347168,
          -0.29175734519958496,
          0.3309733271598816,
          0.05817073583602905,
          0.15469658374786377,
          0.18076753616333008,
          -0.023094862699508667,
          -0.2248314768075943,
          -0.13347819447517395,
          -0.019909054040908813,
          0.27769899368286133,
          -0.0326865017414093,
          -0.11337539553642273,
          -0.06077831983566284,
          0.07342201471328735,
          0.3569430708885193,
          0.3374863862991333,
          -0.026156634092330933,
          0.059280216693878174,
          0.4055768847465515,
          0.19647735357284546,
          -0.047188758850097656,
          0.26511305570602417,
          0.20369952917099,
          -0.12010625004768372,
          0.18091243505477905,
          0.035446733236312866,
          -0.16603562235832214,
          -0.03507542610168457,
          0.42092013359069824,
          0.134335458278656,
          -0.36922234296798706,
          0.2849981188774109,
          0.09609055519104004,
          0.21999281644821167,
          0.001879185438156128,
          0.17786478996276855,
          0.1336778998374939,
          0.3926604986190796,
          0.23601293563842773,
          -0.19571101665496826,
          0.234361469745636,
          -0.02652469277381897,
          0.2956995368003845,
          -0.15692082047462463,
          -0.1312602460384369,
          0.413557767868042,
          0.07879853248596191,
          0.06270170211791992,
          0.04586133360862732,
          0.029152125120162964,
          0.018818020820617676,
          -0.3886166512966156,
          0.4316861629486084,
          0.4269503355026245,
          -0.3078722357749939,
          0.11058491468429565,
          0.369667112827301,
          0.08660006523132324,
          0.19236528873443604,
          0.33307957649230957,
          0.18983376026153564,
          -0.08083593845367432,
          -0.37176594138145447,
          -0.21090568602085114,
          -0.266252726316452,
          0.009046405553817749,
          -0.31665465235710144,
          0.2839771509170532,
          0.08808958530426025,
          -0.19370338320732117,
          -0.25914597511291504,
          0.14649635553359985,
          -0.10705387592315674,
          0.08544260263442993,
          0.04201769828796387,
          0.05562770366668701,
          -0.06188902258872986,
          -0.08763706684112549,
          -0.1048642098903656,
          0.1724458932876587,
          -0.2883174419403076,
          0.010480552911758423,
          -0.181722491979599,
          -0.4249991774559021,
          0.12584424018859863,
          0.13779926300048828,
          0.3979531526565552,
          0.2938392162322998,
          0.4377140402793884,
          -0.35142767429351807,
          -0.38927409052848816,
          0.1390950083732605,
          0.21917212009429932,
          0.19702237844467163,
          -0.294494092464447,
          0.3499775528907776
        ]
      ],
      "bias_ih_l0": [
        [
          20
        ],
        [
          -0.38872578740119934,
          0.11917036771774292,
          -0.17122721672058105,
          -0.1609419882297516,
          0.3533930778503418,
          0.38681089878082275,
          0.1736466884613037,
          0.20043057203292847,
          0.017463743686676025,
          -0.2741876244544983,
          0.11660569906234741,
          0.3846205472946167,
          0.18738818168640137,
          -0.4011371433734894,
          -0.09414991736412048,
          0.14265751838684082,
          -0.08247581124305725,
          -0.1391119360923767,
          -0.3920903503894806,
          0.04578894376754761
        ]
      ],
      "bias_hh_l0": [
        [
          20
        ],
        [
          0.11979854106903076,
          -0.4064636826515198,
          0.08537733554840088,
          0.13457506895065308,
          0.16687500476837158,
          0.2913247346878052,
          -0.26425665616989136,
          0.14568889141082764,
          0.0413472056388855,
          -0.12987744808197021,
          -0.027245908975601196,
          0.44127076864242554,
          0.014410555362701416,
          -0.12072527408599854,
          0.006560266017913818,
          -0.21587932109832764,
          -0.25950539112091064,
          -0.10081756114959717,
          0.23162734508514404,
          -0.03462454676628113
        ]
      ]
    },
    "initial_hidden": [
      [
        1,
        5
      ],
      [
        0.37281447649002075,
        0.3768919110298157,
        0.01077944040298462,
        0.9454936385154724,
        0.7661116719245911
      ]
    ],
    "initial_cell": [
      [
        1,
        5
      ],
      [
        0.2634066939353943,
        0.18803364038467407,
        0.5173947811126709,
        0.78488689661026,
        0.14117932319641113
      ]
    ]
  },
  "gru_forwards": {
    "input": [
      [
        7,
        10
      ],
      [
        0.028979241847991943,
        0.4018985629081726,
        0.25984418392181396,
        0.3666413426399231,
        0.05830073356628418,
        0.7006447315216064,
        0.05179738998413086,
        0.4681392312049866,
        0.6738061308860779,
        0.33146196603775024,
        0.7837080359458923,
        0.5630632042884827,
        0.7748504877090454,
        0.8208025693893433,
        0.2792765498161316,
        0.6817110776901245,
        0.283674955368042,
        0.6567304134368896,
        0.23875582218170166,
        0.731284499168396,
        0.6012226343154907,
        0.30432844161987305,
        0.25475215911865234,
        0.6293618679046631,
        0.966511070728302,
        0.7399492263793945,
        0.45171791315078735,
        0.475730836391449,
        0.7841943502426147,
        0.15249621868133545,
        0.6662244200706482,
        0.33432304859161377,
        0.7892904281616211,
        0.3216397166252136,
        0.5247237682342529,
        0.6688407063484192,
        0.8436146974563599,
        0.4265083074569702,
        0.9561458826065063,
        0.0769769549369812,
        0.4108108878135681,
        0.0014120936393737793,
        0.5414199829101562,
        0.6418901085853577,
        0.29759663343429565,
        0.7076616287231445,
        0.4189454913139343,
        0.06550610065460205,
        0.8838664889335632,
        0.808281660079956,
        0.7528038620948792,
        0.8988310694694519,
        0.6838600039482117,
        0.765845000743866,
        0.9149166345596313,
        0.39925867319107056,
        0.11004722118377686,
        0.2541038393974304,
        0.4332546591758728,
        0.445056676864624,
        0.49661123752593994,
        0.786535918712616,
        0.6603955030441284,
        0.13030409812927246,
        0.3497973084449768,
        0.38237518072128296,
        0.8043068051338196,
        0.31861042976379395,
        0.29080772399902344,
        0.41960978507995605
      ]
    ],
    "output": [
      [
        7,
        5
      ],
      [
        0.18526610732078552,
        -0.32680290937423706,
        -0.3495795726776123,
        -0.1943853199481964,
        0.06386817991733551,
        0.4717623293399811,
        -0.4322977662086487,
        -0.649299144744873,
        -0.2162397801876068,
        0.14105254411697388,
        0.44761186838150024,
        -0.25124049186706543,
        -0.5266503691673279,
        -0.4827250838279724,
        0.053085457533597946,
        0.43463483452796936,
        -0.389095664024353,
        -0.6129056215286255,
        -0.4925231337547302,
        0.3098403811454773,
        0.32012036442756653,
        -0.34307149052619934,
        -0.6438979506492615,
        -0.2968584895133972,
        0.35915228724479675,
        0.4030909836292267,
        -0.4456346035003662,
        -0.684144139289856,
        -0.4034695029258728,
        0.3342525362968445,
        0.39990007877349854,
        -0.5798664689064026,
        -0.7381232380867004,
        -0.48923856019973755,
        0.4268551766872406
      ]
    ],
    "params": {
      "weight_ih_l0": [
        [
          15,
          10
        ],
        [
          0.059640467166900635,
          -0.2805812954902649,
          -0.032038748264312744,
          -0.08802512288093567,
          0.44555389881134033,
          0.3087310791015625,
          0.05087873339653015,
          0.2384854555130005,
          -0.3502509295940399,
          0.25703102350234985,
          0.2099907398223877,
          0.4417702555656433,
          -0.12696948647499084,
          -0.2968149781227112,
          0.37201404571533203,
          0.4363083243370056,
          0.03515639901161194,
          0.09815746545791626,
          0.43476736545562744,
          -0.37899142503738403,
          -0.13693472743034363,
          -0.3294100761413574,
          0.21350550651550293,
          0.29865050315856934,
          -0.3851892650127411,
          -0.07209500670433044,
          -0.40549108386039734,
          0.33001238107681274,
          0.35685181617736816,
          0.14581364393234253,
          -0.003430783748626709,
          -0.004772543907165527,
          0.29911381006240845,
          0.15397518873214722,
          -0.341514527797699,
          0.08918893337249756,
          0.3568611741065979,
          0.2908734083175659,
          -0.31606292724609375,
          -0.34947192668914795,
          0.2804131507873535,
          0.3619864583015442,
          -0.22489780187606812,
          -0.2797242999076843,
          0.10367226600646973,
          -0.22618389129638672,
          0.23098087310791016,
          0.16806453466415405,
          0.3532252311706543,
          -0.08991897106170654,
          -0.1316412389278412,
          -0.3498196303844452,
          0.39799964427948,
          0.2289412021636963,
          0.049860209226608276,
          -0.27270394563674927,
          0.37348759174346924,
          0.41018056869506836,
          -0.11072704195976257,
          -0.25880664587020874,
          -0.19418826699256897,
          0.2929961681365967,
          -0.38619235157966614,
          -0.20242486894130707,
          -0.011853337287902832,
          0.29050707817077637,
          -0.06026288866996765,
          -0.32930701971054077,
          -0.3026617765426636,
          0.14520925283432007,
          -0.003992438316345215,
          -0.11083641648292542,
          0.2811216711997986,
          0.17015737295150757,
          0.030331701040267944,
          -0.1314576268196106,
          -0.29398366808891296,
          -0.4411425292491913,
          0.2152782678604126,
          0.006253868341445923,
          0.3694247007369995,
          -0.16022521257400513,
          -0.4315256178379059,
          -0.24519160389900208,
          -0.3053175210952759,
          -0.08907055854797363,
          -0.3943016231060028,
          0.1802024245262146,
          0.3221348524093628,
          0.012774884700775146,
          -0.4451766312122345,
          0.1555117964744568,
          -0.09472578763961792,
          0.11691635847091675,
          -0.1338774561882019,
          -0.34113559126853943,
          -0.3617126941680908,
          0.1322232484817505,
          -0.14125049114227295,
          0.4016144275665283,
          -0.05783480405807495,
          0.058560311794281006,
          0.29453206062316895,
          0.4177112579345703,
          0.162528395652771,
          0.37665635347366333,
          0.3588078022003174,
          0.44311606884002686,
          -0.3727115988731384,
          0.1817263960838318,
          -0.20479249954223633,
          -0.32270097732543945,
          0.05151247978210449,
          0.3274576663970947,
          0.3872199058532715,
          -0.0068544745445251465,
          0.18537306785583496,
          -0.032317787408828735,
          0.06520360708236694,
          -0.11266747117042542,
          -0.20654967427253723,
          -0.2814839482307434,
          -0.4084928035736084,
          -0.05238610506057739,
          0.4205813407897949,
          0.16211730241775513,
          0.023175209760665894,
          -0.3797297477722168,
          -0.05177861452102661,
          -0.41822272539138794,
          0.07150286436080933,
          -0.16319894790649414,
          0.35611414909362793,
          0.28323882818222046,
          -0.3819267451763153,
          0.2522616386413574,
          -0.11502519249916077,
          -0.43734073638916016,
          -0.15407919883728027,
          0.054747700691223145,
          0.24581986665725708,
          0.025658071041107178,
          0.33932751417160034,
          -0.40003854036331177,
          -0.19465655088424683,
          -0.44396188855171204,
          -0.05021721124649048,
          -0.31978192925453186,
          0.258417010307312,
          0.2704319953918457
        ]
      ],
      "weight_hh_l0": [
        [
          15,
          5
        ],
        [
          -0.1863352358341217,
          0.41479241847991943,
          -0.3100106120109558,
          -0.3384888172149658,
          -0.08740133047103882,
          0.09812313318252563,
          0.40189874172210693,
          -0.3040770888328552,
          0.3501351475715637,
          0.17986470460891724,
          -0.21848297119140625,
          -0.2928106188774109,
          0.14892029762268066,
          -0.03555870056152344,
          0.35804903507232666,
          0.05362600088119507,
          -0.4125180244445801,
          -0.14034974575042725,
          -0.1732032299041748,
          -0.2566523551940918,
          -0.05962619185447693,
          0.18963086605072021,
          -0.2787494361400604,
          -0.08303645253181458,
          -0.19376546144485474,
          0.28015267848968506,
          0.34473443031311035,
          0.36865097284317017,
          0.43800318241119385,
          -0.2130771428346634,
          -0.31292062997817993,
          0.3208327889442444,
          0.19367176294326782,
          0.07353228330612183,
          -0.25038468837738037,
          -0.35678040981292725,
          -0.14847266674041748,
          0.36928558349609375,
          -0.2257082462310791,
          -0.28502553701400757,
          0.16498464345932007,
          0.37998199462890625,
          0.03171926736831665,
          0.11829346418380737,
          0.28991425037384033,
          -0.1309153139591217,
          -0.4024236500263214,
          0.037531882524490356,
          -0.2513808608055115,
          0.17775076627731323,
          -0.23518402874469757,
          0.41845256090164185,
          -0.043517738580703735,
          0.3549988865852356,
          -0.3173360228538513,
          -0.38244712352752686,
          -0.2125888615846634,
          -0.11071401834487915,
          0.3400723338127136,
          -0.34752124547958374,
          -0.1727132797241211,
          0.1333942413330078,
          0.03506633639335632,
          -0.1959216594696045,
          0.29538971185684204,
          -0.2532789707183838,
          0.21238821744918823,
          0.10723614692687988,
          -0.25148653984069824,
          0.0656854510307312,
          0.13949865102767944,
          -0.04461511969566345,
          -0.13826709985733032,
          0.21719688177108765,
          -0.19218730926513672
        ]
      ],
      "bias_ih_l0": [
        [
          15
        ],
        [
          -0.10077714920043945,
          -0.06137818098068237,
          0.03222024440765381,
          0.06760692596435547,
          0.09091824293136597,
          -0.37954843044281006,
          -0.2815364897251129,
          0.11563396453857422,
          0.3699445128440857,
          -0.29209816455841064,
          -0.1272152066230774,
          -0.2849269211292267,
          -0.34855416417121887,
          -0.39564764499664307,
          0.13211685419082642
        ]
      ],
      "bias_hh_l0": [
        [
          15
        ],
        [
          -0.03307119011878967,
          -0.2299884557723999,
          0.436664342880249,
          -0.05351054668426514,
          0.06262630224227905,
          0.44698888063430786,
          -0.3186715841293335,
          -0.1491730511188507,
          -0.3565896153450012,
          0.14364463090896606,
          -0.10301709175109863,
          -0.4394870698451996,
          0.008603870868682861,
          0.005334287881851196,
          0.40896642208099365
        ]
      ]
    }
  },
  "gru_bidirectional": {
    "input": [
      [
        7,
        10
      ],
      [
        0.028979241847991943,
        0.4018985629081726,
        0.25984418392181396,
        0.3666413426399231,
        0.05830073356628418,
        0.7006447315216064,
        0.05179738998413086,
        0.4681392312049866,
        0.6738061308860779,
        0.33146196603775024,
        0.7837080359458923,
        0.5630632042884827,
        0.7748504877090454,
        0.8208025693893433,
        0.2792765498161316,
        0.6817110776901245,
        0.283674955368042,
        0.6567304134368896,
        0.23875582218170166,
        0.731284499168396,
        0.6012226343154907,
        0.30432844161987305,
        0.25475215911865234,
        0.6293618679046631,
        0.966511070728302,
        0.7399492263793945,
        0.45171791315078735,
        0.475730836391449,
        0.7841943502426147,
        0.15249621868133545,
        0.6662244200706482,
        0.33432304859161377,
        0.7892904281616211,
        0.3216397166252136,
        0.5247237682342529,
        0.6688407063484192,
        0.8436146974563599,
        0.4265083074569702,
        0.9561458826065063,
        0.0769769549369812,
        0.4108108878135681,
        0.0014120936393737793,
        0.5414199829101562,
        0.6418901085853577,
        0.29759663343429565,
        0.7076616287231445,
        0.4189454913139343,
        0.06550610065460205,
        0.8838664889335632,
        0.808281660079956,
        0.7528038620948792,
        0.8988310694694519,
        0.6838600039482117,
        0.765845000743866,
        0.9149166345596313,
        0.39925867319107056,
        0.11004722118377686,
        0.2541038393974304,
        0.4332546591758728,
        0.445056676864624,
        0.49661123752593994,
        0.786535918712616,
        0.6603955030441284,
        0.13030409812927246,
        0.3497973084449768,
        0.38237518072128296,
        0.8043068051338196,
        0.31861042976379395,
        0.29080772399902344,
        0.41960978507995605
      ]
    ],
    "output": [
      [
        7,
        10
      ],
      [
        -0.2128290832042694,
        0.18003851175308228,
        -0.1748082935810089,
        0.020470112562179565,
        0.04820290952920914,
        -0.5727031826972961,
        0.3477286696434021,
        0.03597470372915268,
        -0.17856541275978088,
        -0.1609230786561966,
        -0.03846387565135956,
        0.3464917838573456,
        -0.3262488842010498,
        -0.007577173411846161,
        0.02755068615078926,
        -0.5607680678367615,
        0.3230352997779846,
        -0.03611604869365692,
        -0.3082219958305359,
        -0.03491024672985077,
        -0.024780690670013428,
        0.4318264126777649,
        -0.48664170503616333,
        0.16027891635894775,
        0.24981245398521423,
        -0.5307709574699402,
        0.4216381907463074,
        -0.048079729080200195,
        -0.20814138650894165,
        0.048647940158843994,
        0.01421286165714264,
        0.5123478174209595,
        -0.6011683344841003,
        0.1822897493839264,
        0.16358371078968048,
        -0.4139581620693207,
        0.373889684677124,
        0.04375237226486206,
        -0.27144646644592285,
        0.05122150853276253,
        -0.012906830757856369,
        0.5591593980789185,
        -0.6350931525230408,
        0.09247857332229614,
        0.35181018710136414,
        -0.3176133334636688,
        0.2762577533721924,
        0.03922667354345322,
        -0.0963311642408371,
        0.017841115593910217,
        0.11022929847240448,
        0.6242129802703857,
        -0.5768056511878967,
        0.18998116254806519,
        0.2218906432390213,
        -0.43449878692626953,
        0.18100008368492126,
        -0.00694352388381958,
        -0.32737693190574646,
        0.14416460692882538,
        0.06186597794294357,
        0.6715325117111206,
        -0.577250599861145,
        0.2834356427192688,
        0.18029357492923737,
        -0.1920250505208969,
        0.11779691278934479,
        -0.003367612138390541,
        -0.22164295613765717,
        0.054410047829151154
      ]
    ],
    "params": {
      "weight_ih_l0": [
        [
          15,
          10
        ],
        [
          0.09131181240081787,
          -0.3271358609199524,
          0.2563520073890686,
          0.25631582736968994,
          0.1808032989501953,
          -0.18277207016944885,
          0.2650313377380371,
          -0.14744696021080017,
          0.021135270595550537,
          0.15318018198013306,
          -0.18736544251441956,
          0.39511072635650635,
          0.4007313847541809,
          0.03307098150253296,
          -0.06807607412338257,
          -0.23737232387065887,
          0.3052884340286255,
          -0.17306789755821228,
          0.3874586224555969,
          0.07332831621170044,
          0.351753294467926,
          0.22971796989440918,
          0.32474368810653687,
          -0.1195603609085083,
          -0.06235918402671814,
          -0.39789167046546936,
          0.2597694396972656,
          -0.06977605819702148,
          -0.29633307456970215,
          -0.13211414217948914,
          -0.39284205436706543,
          0.3618354797363281,
          -0.05637356638908386,
          -0.09881836175918579,
          0.04875102639198303,
          0.031278371810913086,
          0.27718764543533325,
          -0.26152777671813965,
          0.3580324053764343,
          -0.22749783098697662,
          0.04681214690208435,
          -0.08663469552993774,
          0.04906448721885681,
          -0.02025008201599121,
          0.1820809245109558,
          -0.2664717435836792,
          -0.27476319670677185,
          0.28786706924438477,
          -0.36557790637016296,
          0.33565646409988403,
          -0.43525463342666626,
          -0.07112446427345276,
          0.1818447709083557,
          0.20013397932052612,
          0.07035249471664429,
          -0.011273294687271118,
          0.43049895763397217,
          -0.3501894474029541,
          -0.09246701002120972,
          0.28163158893585205,
          0.4145461916923523,
          -0.09935328364372253,
          0.40247368812561035,
          0.1772426962852478,
          0.08433210849761963,
          0.3367994427680969,
          0.2457364797592163,
          -0.39941537380218506,
          -0.013274699449539185,
          -0.4148671627044678,
          -0.2905668616294861,
          0.06788653135299683,
          0.09702843427658081,
          0.4370213747024536,
          -0.12212347984313965,
          0.35856181383132935,
          0.420793354511261,
          -0.05715137720108032,
          0.4153643846511841,
          0.021696776151657104,
          0.16292798519134521,
          0.08781158924102783,
          0.26597338914871216,
          0.16540920734405518,
          -0.08818575739860535,
          -0.32308509945869446,
          0.27531224489212036,
          0.02066054940223694,
          0.4304234981536865,
          -0.3004947900772095,
          -0.30805787444114685,
          -0.15831103920936584,
          0.31814390420913696,
          -0.16318118572235107,
          0.06297510862350464,
          0.004175394773483276,
          -0.14369511604309082,
          0.051439106464385986,
          -0.3111833333969116,
          -0.22321143746376038,
          0.20966511964797974,
          -0.30528587102890015,
          0.3429604172706604,
          0.4289330840110779,
          0.1428655982017517,
          -0.40383607149124146,
          0.14159750938415527,
          0.06942975521087646,
          -0.3260102868080139,
          -0.182786226272583,
          0.43287360668182373,
          0.22736519575119019,
          0.3457959294319153,
          -0.12032085657119751,
          0.07405084371566772,
          -0.2296319603919983,
          0.07184135913848877,
          0.4040296673774719,
          0.4401596188545227,
          0.29923927783966064,
          -0.29125505685806274,
          0.06139552593231201,
          0.07096719741821289,
          0.08839565515518188,
          -0.11087802052497864,
          -0.12857317924499512,
          -0.3284621834754944,
          -0.038266509771347046,
          -0.34029561281204224,
          -0.09373348951339722,
          -0.40434694290161133,
          0.3448842167854309,
          -0.34591957926750183,
          0.15737438201904297,
          0.443498432636261,
          0.3054007291793823,
          0.44613271951675415,
          -0.17669126391410828,
          -0.3583957254886627,
          -0.38201096653938293,
          -0.08020937442779541,
          -0.314159631729126,
          -0.17034554481506348,
          -0.21381567418575287,
          0.4366627335548401,
          0.14565438032150269,
          0.07725757360458374,
          -0.2143707573413849,
          -0.1196550726890564,
          0.401883602142334
        ]
      ],
      "weight_hh_l0": [
        [
          15,
          5
        ],
        [
          0.18759065866470337,
          0.2017093300819397,
          -0.043995797634124756,
          -0.4257546663284302,
          0.09032988548278809,
          0.344895601272583,
          0.31885409355163574,
          0.13606661558151245,
          -0.3438117504119873,
          0.21505558490753174,
          -0.29361698031425476,
          0.34631913900375366,
          0.2672853469848633,
          0.33085936307907104,
          -0.34213581681251526,
          0.09013020992279053,
          -0.22936315834522247,
          0.34840112924575806,
          0.2719857692718506,
          0.4389079809188843,
          0.02242419123649597,
          -0.1526164710521698,
          0.36284464597702026,
          0.30974841117858887,
          0.01148688793182373,
          0.19072836637496948,
          -0.19498580694198608,
          0.25648778676986694,
          0.2893529534339905,
          0.2910918593406677,
          -0.23529982566833496,
          0.16445213556289673,
          -0.0870460569858551,
          0.4358070492744446,
          -0.11986887454986572,
          -0.27502578496932983,
          -0.38097986578941345,
          0.3985142111778259,
          -0.41022831201553345,
          -0.09906971454620361,
          -0.18065249919891357,
          -0.2553043067455292,
          -0.09971234202384949,
          -0.10921803116798401,
          -0.38660669326782227,
          -0.19568964838981628,
          0.1984339952468872,
          0.17425882816314697,
          0.39979612827301025,
          -0.09353533387184143,
          -0.37901103496551514,
          0.2401309609413147,
          -0.15302184224128723,
          -0.1294623613357544,
          0.21125465631484985,
          0.4458422064781189,
          0.3824957013130188,
          0.08881467580795288,
          -0.08627089858055115,
          0.09604209661483765,
          -0.12460783123970032,
          0.31857961416244507,
          0.10507988929748535,
          0.2848302721977234,
          -0.015061289072036743,
          0.05609816312789917,
          0.2984638214111328,
          -0.2019493281841278,
          0.3934733271598816,
          -0.2608144283294678,
          0.3332033157348633,
          -0.29864227771759033,
          -0.36363065242767334,
          -0.37092068791389465,
          -0.02109631896018982
        ]
      ],
      "bias_ih_l0": [
        [
          15
        ],
        [
          0.17337733507156372,
          0.08076459169387817,
          -0.3268622159957886,
          -0.15814363956451416,
          -0.3029048442840576,
          0.14984244108200073,
          0.10474443435668945,
          0.18484914302825928,
          0.3679690957069397,
          -0.1850946843624115,
          -0.2890130877494812,
          -0.29227185249328613,
          -0.2291184514760971,
          0.3223634958267212,
          0.34237098693847656
        ]
      ],
      "bias_hh_l0": [
        [
          15
        ],
        [
          -0.15482991933822632,
          -0.04146614670753479,
          -0.23743604123592377,
          -0.10457631945610046,
          -0.40088245272636414,
          0.20719337463378906,
          0.21103209257125854,
          -0.32329875230789185,
          -0.023176342248916626,
          -0.11980077624320984,
          0.23934143781661987,
          0.31610602140426636,
          0.06074124574661255,
          -0.36783072352409363,
          -0.3532256782054901
        ]
      ],
      "weight_ih_l0_reverse": [
        [
          15,
          10
        ],
        [
          0.4049258232116699,
          -0.09696143865585327,
          -0.03722265362739563,
          -0.20097136497497559,
          -0.2502782642841339,
          0.22264689207077026,
          -0.011737823486328125,
          0.0766252875328064,
          -0.3657962679862976,
          0.36395514011383057,
          0.29094505310058594,
          0.44443631172180176,
          0.34676069021224976,
          0.19250059127807617,
          0.05247423052787781,
          -0.37729600071907043,
          -0.3246166408061981,
          0.005508720874786377,
          0.2631562352180481,
          0.010622143745422363,
          0.2214481234550476,
          0.02755555510520935,
          -0.07697385549545288,
          0.08484286069869995,
          -0.000656813383102417,
          -0.2366429716348648,
          -0.16051128506660461,
          0.3510593771934509,
          0.31190943717956543,
          -0.06621971726417542,
          -0.3272057771682739,
          0.35804152488708496,
          -0.2609870433807373,
          0.01962292194366455,
          0.14317429065704346,
          -0.008372962474822998,
          -0.1282481849193573,
          0.3664878010749817,
          0.25860893726348877,
          -0.431194007396698,
          -0.24418534338474274,
          0.012405604124069214,
          0.18296509981155396,
          0.1824045181274414,
          -0.11548256874084473,
          -0.3237650990486145,
          0.420703649520874,
          -0.33049142360687256,
          -0.3333032429218292,
          0.43861526250839233,
          0.1673174500465393,
          0.19851088523864746,
          -0.2656634747982025,
          -0.27765974402427673,
          0.13046187162399292,
          -0.07548868656158447,
          0.3518391251564026,
          -0.1502731740474701,
          0.4347814917564392,
          0.16912841796875,
          -0.19676655530929565,
          -0.3561612069606781,
          0.2700732946395874,
          -0.21257419884204865,
          -0.3581593930721283,
          0.06283575296401978,
          0.22802281379699707,
          -0.09937864542007446,
          0.04611334204673767,
          -0.19654032588005066,
          0.34379976987838745,
          0.4092333912849426,
          0.29192477464675903,
          -0.43240195512771606,
          -0.40852078795433044,
          0.24831336736679077,
          0.3875943422317505,
          0.23880594968795776,
          0.044590383768081665,
          -0.08911839127540588,
          -0.3356882333755493,
          -0.062414973974227905,
          0.42222827672958374,
          -0.046434760093688965,
          -0.42920586466789246,
          0.06473332643508911,
          -0.40632861852645874,
          0.31746917963027954,
          -0.025964856147766113,
          0.05440109968185425,
          0.08124732971191406,
          -0.06093665957450867,
          0.09318315982818604,
          -0.32757002115249634,
          0.07008421421051025,
          0.17146068811416626,
          -0.3177433907985687,
          -0.427285760641098,
          0.008026927709579468,
          0.12086421251296997,
          -0.12589621543884277,
          -0.2818479537963867,
          -0.028690725564956665,
          0.21815907955169678,
          -0.2606010138988495,
          -0.41714075207710266,
          0.4320054054260254,
          -0.42186036705970764,
          -0.06893450021743774,
          0.2099665403366089,
          -0.277778685092926,
          -0.039835602045059204,
          -0.01768738031387329,
          0.06208634376525879,
          0.10486185550689697,
          -0.21423779428005219,
          0.304931104183197,
          0.056329190731048584,
          0.4417383074760437,
          0.030501574277877808,
          -0.22030773758888245,
          0.01494443416595459,
          0.4225611090660095,
          -0.294654905796051,
          -0.038840264081954956,
          -0.2566268742084503,
          -0.2265206128358841,
          0.33738213777542114,
          0.39359360933303833,
          0.2552487850189209,
          -0.3005481958389282,
          -0.23195034265518188,
          -0.3762248754501343,
          -0.1501319706439972,
          0.13369345664978027,
          0.31369805335998535,
          -0.19738666713237762,
          -0.25424638390541077,
          0.14916688203811646,
          0.3638484477996826,
          0.03755006194114685,
          0.3227369785308838,
          0.3800863027572632,
          -0.07775887846946716,
          0.4153478145599365,
          0.32629185914993286,
          0.11992102861404419,
          -0.3876621127128601,
          -0.13805657625198364,
          -0.0957605242729187
        ]
      ],
      "weight_hh_l0_reverse": [
        [
          15,
          5
        ],
        [
          0.00038743019104003906,
          -0.39100080728530884,
          0.3396937847137451,
          0.30613112449645996,
          0.06622326374053955,
          -0.3624952435493469,
          -0.2927038073539734,
          -0.44390445947647095,
          -0.15773174166679382,
          0.27307575941085815,
          -0.3405819535255432,
          0.30023062229156494,
          -0.07866007089614868,
          -0.04322996735572815,
          -0.15234526991844177,
          0.09721404314041138,
          -0.15846356749534607,
          -0.22273360192775726,
          0.07034850120544434,
          -0.363374799489975,
          0.1591501235961914,
          -0.32882702350616455,
          0.3419724106788635,
          0.3118045926094055,
          -0.0312345027923584,
          0.022215336561203003,
          0.03875398635864258,
          0.15264636278152466,
          -0.06914845108985901,
          0.07091104984283447,
          -0.040827661752700806,
          -0.29093271493911743,
          0.1722627878189087,
          -0.36139026284217834,
          -0.07718166708946228,
          0.42140066623687744,
          -0.0062732696533203125,
          -0.0289609432220459,
          0.20514202117919922,
          0.4126444458961487,
          0.17725586891174316,
          -0.13705435395240784,
          0.3018761873245239,
          -0.028902143239974976,
          0.05563020706176758,
          0.2653173804283142,
          -0.06414949893951416,
          0.17289161682128906,
          -0.02661186456680298,
          0.22983801364898682,
          0.32088637351989746,
          0.09563440084457397,
          -0.03303942084312439,
          -0.35609355568885803,
          -0.24357204139232635,
          -0.09609401226043701,
          0.3977210521697998,
          0.018174856901168823,
          0.1572825312614441,
          -0.25091245770454407,
          0.10226309299468994,
          -0.309192955493927,
          -0.22302676737308502,
          -0.4094271659851074,
          0.3020901679992676,
          -0.2948036789894104,
          -0.25945502519607544,
          0.28682607412338257,
          0.33410775661468506,
          0.23814141750335693,
          0.3834766745567322,
          -0.2916262745857239,
          0.11388158798217773,
          -0.22192901372909546,
          -0.40240222215652466
        ]
      ],
      "bias_ih_l0_reverse": [
        [
          15
        ],
        [
          -0.24866046011447906,
          -0.16802743077278137,
          -0.06174948811531067,
          -0.09044873714447021,
          -0.019999295473098755,
          -0.4081265926361084,
          0.34134334325790405,
          0.4231085181236267,
          0.245671808719635,
          0.4387044310569763,
          -0.12220165133476257,
          -0.04132726788520813,
          -0.3808977007865906,
          0.04979604482650757,
          -0.326482355594635
        ]
      ],
      "bias_hh_l0_reverse": [
        [
          15
        ],
        [
          -0.4144265353679657,
          -0.01597258448600769,
          -0.20570802688598633,
          -0.35413986444473267,
          0.018642932176589966,
          -0.056491315364837646,
          0.40687096118927,
          -0.02485138177871704,
          0.10213327407836914,
          0.36333996057510376,
          -0.11096251010894775,
          0.3157427906990051,
          0.4189731478691101,
          -0.18824946880340576,
          -0.3626357316970825
        ]
      ]
    }
  },
  "gru_initial": {
    "input": [
      [
        7,
        10
      ],
      [
        0.028979241847991943,
        0.4018985629081726,
        0.25984418392181396,
        0.3666413426399231,
        0.05830073356628418,
        0.7006447315216064,
        0.05179738998413086,
        0.4681392312049866,
        0.6738061308860779,
        0.33146196603775024,
        0.7837080359458923,
        0.5630632042884827,
        0.7748504877090454,
        0.8208025693893433,
        0.2792765498161316,
        0.6817110776901245,
        0.283674955368042,
        0.6567304134368896,
        0.23875582218170166,
        0.731284499168396,
        0.6012226343154907,
        0.30432844161987305,
        0.25475215911865234,
        0.6293618679046631,
        0.966511070728302,
        0.7399492263793945,
        0.45171791315078735,
        0.475730836391449,
        0.7841943502426147,
        0.15249621868133545,
        0.6662244200706482,
        0.33432304859161377,
        0.7892904281616211,
        0.3216397166252136,
        0.5247237682342529,
        0.6688407063484192,
        0.8436146974563599,
        0.4265083074569702,
        0.9561458826065063,
        0.0769769549369812,
        0.4108108878135681,
        0.0014120936393737793,
        0.5414199829101562,
        0.6418901085853577,
        0.29759663343429565,
        0.7076616287231445,
        0.4189454913139343,
        0.06550610065460205,
        0.8838664889335632,
        0.808281660079956,
        0.7528038620948792,
        0.8988310694694519,
        0.6838600039482117,
        0.765845000743866,
        0.9149166345596313,
        0.39925867319107056,
        0.11004722118377686,
        0.2541038393974304,
        0.4332546591758728,
        0.445056676864624,
        0.49661123752593994,
        0.786535918712616,
        0.6603955030441284,
        0.13030409812927246,
        0.3497973084449768,
        0.38237518072128296,
        0.8043068051338196,
        0.31861042976379395,
        0.29080772399902344,
        0.41960978507995605
      ]
    ],
    "output": [
      [
        7,
        5
      ],
      [
        0.3939278721809387,
        -0.3213258385658264,
        -0.43593448400497437,
        0.4208398759365082,
        0.3715895414352417,
        0.5652477741241455,
        -0.4467412233352661,
        -0.7287471294403076,
        -0.00931897759437561,
        0.29897868633270264,
        0.496055543422699,
        -0.2683330178260803,
        -0.552108108997345,
        -0.3976256251335144,
        0.11833561956882477,
        0.46058356761932373,
        -0.4002027213573456,
        -0.627174973487854,
        -0.46881651878356934,
        0.33479976654052734,
        0.3287402093410492,
        -0.3493567705154419,
        -0.651669442653656,
        -0.2918590009212494,
        0.37134426832199097,
        0.405110627412796,
        -0.44892776012420654,
        -0.6877383589744568,
        -0.4027338922023773,
        0.33990412950515747,
        0.4000200033187866,
        -0.5811556577682495,
        -0.7393643856048584,
        -0.4893845319747925,
        0.4291139841079712
      ]
    ],
    "params": {
      "weight_ih_l0": [
        [
          15,
          10
        ],
        [
          0.059640467166900635,
          -0.2805812954902649,
          -0.032038748264312744,
          -0.08802512288093567,
          0.44555389881134033,
          0.3087310791015625,
          0.05087873339653015,
          0.2384854555130005,
          -0.3502509295940399,
          0.25703102350234985,
          0.2099907398223877,
          0.4417702555656433,
          -0.12696948647499084,
          -0.2968149781227112,
          0.37201404571533203,
          0.4363083243370056,
          0.03515639901161194,
          0.09815746545791626,
          0.43476736545562744,
          -0.37899142503738403,
          -0.13693472743034363,
          -0.3294100761413574,
          0.21350550651550293,
          0.29865050315856934,
          -0.3851892650127411,
          -0.07209500670433044,
          -0.40549108386039734,
          0.33001238107681274,
          0.35685181617736816,
          0.14581364393234253,
          -0.003430783748626709,
          -0.004772543907165527,
          0.29911381006240845,
          0.15397518873214722,
          -0.341514527797699,
          0.08918893337249756,
          0.3568611741065979,
          0.2908734083175659,
          -0.31606292724609375,
          -0.34947192668914795,
          0.2804131507873535,
          0.3619864583015442,
          -0.22489780187606812,
          -0.2797242999076843,
          0.10367226600646973,
          -0.22618389129638672,
          0.23098087310791016,
          0.16806453466415405,
          0.3532252311706543,
          -0.08991897106170654,
          -0.1316412389278412,
          -0.3498196303844452,
          0.39799964427948,
          0.2289412021636963,
          0.049860209226608276,
          -0.27270394563674927,
          0.37348759174346924,
          0.41018056869506836,
          -0.11072704195976257,
          -0.25880664587020874,
          -0.19418826699256897,
          0.2929961681365967,
          -0.38619235157966614,
          -0.20242486894130707,
          -0.011853337287902832,
          0.29050707817077637,
          -0.06026288866996765,
          -0.32930701971054077,
          -0.3026617765426636,
          0.14520925283432007,
          -0.003992438316345215,
          -0.11083641648292542,
          0.2811216711997986,
          0.17015737295150757,
          0.030331701040267944,
          -0.1314576268196106,
          -0.29398366808891296,
          -0.4411425292491913,
          0.2152782678604126,
          0.006253868341445923,
          0.3694247007369995,
          -0.16022521257400513,
          -0.4315256178379059,
          -0.24519160389900208,
          -0.3053175210952759,
          -0.08907055854797363,
          -0.3943016231060028,
          0.1802024245262146,
          0.3221348524093628,
          0.012774884700775146,
          -0.4451766312122345,
          0.1555117964744568,
          -0.09472578763961792,
          0.11691635847091675,
          -0.1338774561882019,
          -0.34113559126853943,
          -0.3617126941680908,
          0.1322232484817505,
          -0.14125049114227295,
          0.4016144275665283,
          -0.05783480405807495,
          0.058560311794281006,
          0.29453206062316895,
          0.4177112579345703,
          0.162528395652771,
          0.37665635347366333,
          0.3588078022003174,
          0.44311606884002686,
          -0.3727115988731384,
          0.1817263960838318,
          -0.20479249954223633,
          -0.32270097732543945,
          0.05151247978210449,
          0.3274576663970947,
          0.3872199058532715,
          -0.0068544745445251465,
          0.18537306785583496,
          -0.032317787408828735,
          0.06520360708236694,
          -0.11266747117042542,
          -0.20654967427253723,
          -0.2814839482307434,
          -0.4084928035736084,
          -0.05238610506057739,
          0.4205813407897949,
          0.16211730241775513,
          0.023175209760665894,
          -0.3797297477722168,
          -0.05177861452102661,
          -0.41822272539138794,
          0.07150286436080933,
          -0.16319894790649414,
          0.35611414909362793,
          0.28323882818222046,
          -0.3819267451763153,
          0.2522616386413574,
          -0.11502519249916077,
          -0.43734073638916016,
          -0.15407919883728027,
          0.054747700691223145,
          0.24581986665725708,
          0.025658071041107178,
          0.33932751417160034,
          -0.40003854036331177,
          -0.19465655088424683,
          -0.44396188855171204,
          -0.05021721124649048,
          -0.31978192925453186,
          0.258417010307312,
          0.2704319953918457
        ]
      ],
      "weight_hh_l0": [
        [
          15,
          5
        ],
        [
          -0.1863352358341217,
          0.41479241847991943,
          -0.3100106120109558,
          -0.3384888172149658,
          -0.08740133047103882,
          0.09812313318252563,
          0.40189874172210693,
          -0.3040770888328552,
          0.3501351475715637,
          0.17986470460891724,
          -0.21848297119140625,
          -0.2928106188774109,
          0.14892029762268066,
          -0.03555870056152344,
          0.35804903507232666,
          0.05362600088119507,
          -0.4125180244445801,
          -0.14034974575042725,
          -0.1732032299041748,
          -0.2566523551940918,
          -0.05962619185447693,
          0.18963086605072021,
          -0.2787494361400604,
          -0.08303645253181458,
          -0.19376546144485474,
          0.28015267848968506,
          0.34473443031311035,
          0.36865097284317017,
          0.43800318241119385,
          -0.2130771428346634,
          -0.31292062997817993,
          0.3208327889442444,
          0.19367176294326782,
          0.07353228330612183,
          -0.25038468837738037,
          -0.35678040981292725,
          -0.14847266674041748,
          0.36928558349609375,
          -0.2257082462310791,
          -0.28502553701400757,
          0.16498464345932007,
          0.37998199462890625,
          0.03171926736831665,
          0.11829346418380737,
          0.28991425037384033,
          -0.1309153139591217,
          -0.4024236500263214,
          0.037531882524490356,
          -0.2513808608055115,
          0.17775076627731323,
          -0.23518402874469757,
          0.41845256090164185,
          -0.043517738580703735,
          0.3549988865852356,
          -0.3173360228538513,
          -0.38244712352752686,
          -0.2125888615846634,
          -0.11071401834487915,
          0.3400723338127136,
          -0.34752124547958374,
          -0.1727132797241211,
          0.1333942413330078,
          0.03506633639335632,
          -0.1959216594696045,
          0.29538971185684204,
          -0.2532789707183838,
          0.21238821744918823,
          0.10723614692687988,
          -0.25148653984069824,
          0.0656854510307312,
          0.13949865102767944,
          -0.04461511969566345,
          -0.13826709985733032,
          0.21719688177108765,
          -0.19218730926513672
        ]
      ],
      "bias_ih_l0": [
        [
          15
        ],
        [
          -0.10077714920043945,
          -0.06137818098068237,
          0.03222024440765381,
          0.06760692596435547,
          0.09091824293136597,
          -0.37954843044281006,
          -0.2815364897251129,
          0.11563396453857422,
          0.3699445128440857,
          -0.29209816455841064,
          -0.1272152066230774,
          -0.2849269211292267,
          -0.34855416417121887,
          -0.39564764499664307,
          0.13211685419082642
        ]
      ],
      "bias_hh_l0": [
        [
          15
        ],
        [
          -0.03307119011878967,
          -0.2299884557723999,
          0.436664342880249,
          -0.05351054668426514,
          0.06262630224227905,
          0.44698888063430786,
          -0.3186715841293335,
          -0.1491730511188507,
          -0.3565896153450012,
          0.14364463090896606,
          -0.10301709175109863,
          -0.4394870698451996,
          0.008603870868682861,
          0.005334287881851196,
          0.40896642208099365
        ]
      ]
    },
    "initial_hidden": [
      [
        1,
        5
      ],
      [
        0.37281447649002075,
        0.3768919110298157,
        0.01077944040298462,
        0.9454936385154724,
        0.7661116719245911
      ]
    ]
  }
}